{"learner":{"attributes":{"best_iteration":"61","best_score":"0.358621798962852"},"feature_names":["gender","age","city","profession","academic_pressure","work_pressure","cgpa","study_satisfaction","job_satisfaction","sleep_duration","dietary_habits","degree","suicidal_thoughts","work_study_hours","financial_stress","mi_history"],"feature_types":["int","float","int","int","float","float","float","float","float","int","int","int","int","float","float","int"],"gradient_booster":{"model":{"gbtree_model_param":{"num_parallel_tree":"1","num_trees":"112"},"iteration_indptr":[0,1,2,3,4,5,6,7,8,9,10,11,12,13,14,15,16,17,18,19,20,21,22,23,24,25,26,27,28,29,30,31,32,33,34,35,36,37,38,39,40,41,42,43,44,45,46,47,48,49,50,51,52,53,54,55,56,57,58,59,60,61,62,63,64,65,66,67,68,69,70,71,72,73,74,75,76,77,78,79,80,81,82,83,84,85,86,87,88,89,90,91,92,93,94,95,96,97,98,99,100,101,102,103,104,105,106,107,108,109,110,111,112],"tree_info":[0,0,0,0,0,0,0,0,0,0,0,0,0,0,0,0,0,0,0,0,0,0,0,0,0,0,0,0,0,0,0,0,0,0,0,0,0,0,0,0,0,0,0,0,0,0,0,0,0,0,0,0,0,0,0,0,0,0,0,0,0,0,0,0,0,0,0,0,0,0,0,0,0,0,0,0,0,0,0,0,0,0,0,0,0,0,0,0,0,0,0,0,0,0,0,0,0,0,0,0,0,0,0,0,0,0,0,0,0,0,0,0],"trees":[{"base_weights":[8.716583E-3,-1.465894E0,8.52504E-1,-1.8610612E0,-3.7065533E-1,-3.342552E-1,1.2104108E0,-2.0770416E0,-1.3424151E0,-1.1180025E0,2.1604909E-1,-9.672429E-1,4.695646E-1,6.869178E-1,1.4035425E0,-2.2099771E0,-1.8078649E0,-1.6889566E0,-7.501108E-1,-8.691416E-2,-1.3397483E0,-1.0648831E-1,7.487758E-1,-1.2586851E0,-3.9502513E-1,4.8696764E-2,7.6040494E-1,1.9154218E-1,9.5643824E-1,1.1991566E0,1.5169343E0,-2.2728737E-1,-2.0272195E0,-1.962012E0,-1.3417346E0,-1.8998929E0,-1.2280613E0,-1.3704666E0,-3.8115054E-1,-5.0913966E-1,3.0073056E-1,-1.6578542E0,-9.2766625E-1,-1.0215691E0,9.689144E-2,9.9267364E-1,2.502956E-1,-1.5844481E0,-8.837453E-1,-8.280574E-1,6.191998E-2,-3.1278247E-1,4.9622324E-1,5.1109594E-1,1.1138645E0,-6.624926E-1,4.0051582E-1,5.840382E-1,1.239812E0,8.4798867E-1,1.375317E0,1.3110315E0,1.5743474E0,-2.1174589E-1,-1.4674598E-1,-2.0737445E-1,-1.6208725E-1,-1.8207839E-1,-9.081052E-2,-2.1073912E-1,-1.5909296E-1,-1.5897684E-1,-7.432044E-2,-7.629581E-2,-1.661371E-1,-6.8854675E-2,2.3096306E-2,1.0904581E-2,-9.014141E-2,6.269062E-2,-3.7181254E-2,-2.021201E-1,-1.4087512E-1,-1.4320475E-1,-6.915221E-2,8.847626E-3,-1.24005675E-1,-4.9504086E-2,3.3365916E-2,-2.6956543E-2,1.0739372E-1,-1.1456473E-1,3.7193626E-2,-1.9882342E-1,-1.470497E-1,-1.4885461E-1,-5.7443637E-2,-1.1962587E-1,-1.749698E-3,-4.7932785E-2,2.009122E-2,-8.088624E-2,2.2308564E-2,-4.596516E-3,8.7731786E-2,2.1577384E-2,7.839651E-2,1.2306514E-1,-2.7689075E-3,-1.4240277E-1,-2.6409635E-2,8.1446126E-2,1.4605181E-2,2.4830027E-2,9.502094E-2,1.3975202E-1,8.363841E-2,4.0998094E-2,1.0009505E-1,1.468242E-1,1.1687278E-1,8.810385E-2,1.4323835E-1,1.2052574E-1,1.5877295E-1],"categories":[],"categories_nodes":[],"categories_segments":[],"categories_sizes":[],"default_left":[0,0,0,0,0,0,0,0,0,0,0,0,0,0,0,0,0,0,0,0,0,0,0,0,0,0,0,0,0,0,0,0,0,0,0,0,0,0,0,0,0,0,0,0,0,0,0,0,0,0,0,0,0,0,0,0,0,0,0,0,0,0,0,0,0,0,0,0,0,0,0,0,0,0,0,0,0,0,0,0,0,0,0,0,0,0,0,0,0,0,0,0,0,0,0,0,0,0,0,0,0,0,0,0,0,0,0,0,0,0,0,0,0,0,0,0,0,0,0,0,0,0,0,0,0],"id":0,"left_children":[1,3,5,7,9,11,13,15,17,19,21,23,25,27,29,31,33,35,37,39,41,43,45,47,49,51,53,55,57,59,61,-1,63,65,67,69,71,73,75,77,79,81,83,85,87,89,91,93,95,97,99,101,103,105,107,109,111,113,115,117,119,121,123,-1,-1,-1,-1,-1,-1,-1,-1,-1,-1,-1,-1,-1,-1,-1,-1,-1,-1,-1,-1,-1,-1,-1,-1,-1,-1,-1,-1,-1,-1,-1,-1,-1,-1,-1,-1,-1,-1,-1,-1,-1,-1,-1,-1,-1,-1,-1,-1,-1,-1,-1,-1,-1,-1,-1,-1,-1,-1,-1,-1,-1,-1],"loss_changes":[5.3977295E3,6.826487E2,1.1723883E3,1.27151855E2,1.8434334E2,3.2614862E2,2.1338696E2,2.5244385E1,6.931464E1,4.2140137E1,4.0639473E1,5.9278748E1,3.4563995E1,7.636511E1,3.4052002E1,1.6281738E0,1.7172546E1,1.8679993E1,2.8941162E1,5.682205E0,1.8391876E1,2.7626066E1,1.0589638E1,2.7550293E1,2.4273172E1,1.9015213E1,1.4154945E1,3.654351E1,3.8433685E1,3.3294983E1,9.659668E0,0E0,4.3761597E0,4.451477E0,1.3232803E1,6.036194E0,1.1215889E1,7.148567E0,1.5607683E1,4.1093965E0,4.234459E0,4.8036346E0,7.169121E0,6.653734E0,1.7253206E1,6.3947525E0,5.626255E0,2.8539734E0,2.0182129E1,1.8757534E1,4.6470604E0,1.748767E1,1.0883735E1,7.875517E0,9.134674E0,1.1862015E1,1.7148994E1,1.9708843E1,1.2181244E1,1.2232422E1,5.374817E0,1.033316E1,1.8920898E0,0E0,0E0,0E0,0E0,0E0,0E0,0E0,0E0,0E0,0E0,0E0,0E0,0E0,0E0,0E0,0E0,0E0,0E0,0E0,0E0,0E0,0E0,0E0,0E0,0E0,0E0,0E0,0E0,0E0,0E0,0E0,0E0,0E0,0E0,0E0,0E0,0E0,0E0,0E0,0E0,0E0,0E0,0E0,0E0,0E0,0E0,0E0,0E0,0E0,0E0,0E0,0E0,0E0,0E0,0E0,0E0,0E0,0E0,0E0,0E0,0E0,0E0],"parents":[2147483647,0,0,1,1,2,2,3,3,4,4,5,5,6,6,7,7,8,8,9,9,10,10,11,11,12,12,13,13,14,14,15,15,16,16,17,17,18,18,19,19,20,20,21,21,22,22,23,23,24,24,25,25,26,26,27,27,28,28,29,29,30,30,32,32,33,33,34,34,35,35,36,36,37,37,38,38,39,39,40,40,41,41,42,42,43,43,44,44,45,45,46,46,47,47,48,48,49,49,50,50,51,51,52,52,53,53,54,54,55,55,56,56,57,57,58,58,59,59,60,60,61,61,62,62],"right_children":[2,4,6,8,10,12,14,16,18,20,22,24,26,28,30,32,34,36,38,40,42,44,46,48,50,52,54,56,58,60,62,-1,64,66,68,70,72,74,76,78,80,82,84,86,88,90,92,94,96,98,100,102,104,106,108,110,112,114,116,118,120,122,124,-1,-1,-1,-1,-1,-1,-1,-1,-1,-1,-1,-1,-1,-1,-1,-1,-1,-1,-1,-1,-1,-1,-1,-1,-1,-1,-1,-1,-1,-1,-1,-1,-1,-1,-1,-1,-1,-1,-1,-1,-1,-1,-1,-1,-1,-1,-1,-1,-1,-1,-1,-1,-1,-1,-1,-1,-1,-1,-1,-1,-1,-1],"split_conditions":[1E0,4E0,3E0,4E0,3E0,4E0,3E0,3E0,3E0,2E0,5E0,3E0,2E0,4E0,4E0,2E0,2E0,3E0,6E0,5E0,5E0,3E0,4E0,2E0,2E0,2E0,2E0,4E0,8E0,7E0,1E0,-2.2728737E-1,1.1E1,3E0,7E0,2E0,8E0,3E0,2E0,2E0,1.4E1,1E0,1E0,2E0,1E0,2E0,1E0,3E0,5E0,2E0,4E0,5E0,8E0,5E0,2.3E1,1E0,3E0,5E0,4E0,4E0,1.2E1,5E0,1E0,-2.1174589E-1,-1.4674598E-1,-2.0737445E-1,-1.6208725E-1,-1.8207839E-1,-9.081052E-2,-2.1073912E-1,-1.5909296E-1,-1.5897684E-1,-7.432044E-2,-7.629581E-2,-1.661371E-1,-6.8854675E-2,2.3096306E-2,1.0904581E-2,-9.014141E-2,6.269062E-2,-3.7181254E-2,-2.021201E-1,-1.4087512E-1,-1.4320475E-1,-6.915221E-2,8.847626E-3,-1.24005675E-1,-4.9504086E-2,3.3365916E-2,-2.6956543E-2,1.0739372E-1,-1.1456473E-1,3.7193626E-2,-1.9882342E-1,-1.470497E-1,-1.4885461E-1,-5.7443637E-2,-1.1962587E-1,-1.749698E-3,-4.7932785E-2,2.009122E-2,-8.088624E-2,2.2308564E-2,-4.596516E-3,8.7731786E-2,2.1577384E-2,7.839651E-2,1.2306514E-1,-2.7689075E-3,-1.4240277E-1,-2.6409635E-2,8.1446126E-2,1.4605181E-2,2.4830027E-2,9.502094E-2,1.3975202E-1,8.363841E-2,4.0998094E-2,1.0009505E-1,1.468242E-1,1.1687278E-1,8.810385E-2,1.4323835E-1,1.2052574E-1,1.5877295E-1],"split_indices":[12,4,4,14,14,14,14,4,4,7,14,14,4,4,4,10,10,10,13,4,4,13,7,4,4,10,10,13,13,13,10,0,13,14,13,4,13,7,10,14,11,10,10,7,10,13,11,13,13,10,13,14,13,14,11,10,7,4,7,14,11,13,13,0,0,0,0,0,0,0,0,0,0,0,0,0,0,0,0,0,0,0,0,0,0,0,0,0,0,0,0,0,0,0,0,0,0,0,0,0,0,0,0,0,0,0,0,0,0,0,0,0,0,0,0,0,0,0,0,0,0,0,0,0,0],"split_type":[0,0,0,0,0,0,0,0,0,0,0,0,0,0,0,0,0,0,0,0,0,0,0,0,0,0,0,0,0,0,0,0,0,0,0,0,0,0,0,0,0,0,0,0,0,0,0,0,0,0,0,0,0,0,0,0,0,0,0,0,0,0,0,0,0,0,0,0,0,0,0,0,0,0,0,0,0,0,0,0,0,0,0,0,0,0,0,0,0,0,0,0,0,0,0,0,0,0,0,0,0,0,0,0,0,0,0,0,0,0,0,0,0,0,0,0,0,0,0,0,0,0,0,0,0],"sum_hessian":[4.336107E3,1.57787E3,2.758237E3,1.1589987E3,4.188713E2,6.391126E2,2.1191245E3,8.161313E2,3.428674E2,1.8381772E2,2.3505357E2,3.5743686E2,2.8167578E2,5.7233606E2,1.5467886E3,5.414974E2,2.7463388E2,2.1514201E2,1.27725395E2,3.278123E1,1.510365E2,1.469085E2,8.814509E1,2.3602487E2,1.2141197E2,1.155842E2,1.6609158E2,2.0227234E2,3.700637E2,5.5606683E2,9.907217E2,3.9434607E2,1.471513E2,2.039721E2,7.0661766E1,1.4545154E2,6.9690475E1,4.6622196E1,8.1103195E1,1.5540732E1,1.72405E1,8.353143E1,6.750506E1,2.5982162E1,1.2092632E2,5.852057E1,2.9624521E1,1.2456868E2,1.1145619E2,6.1920105E1,5.9491867E1,6.410552E1,5.1478676E1,9.8829346E1,6.726223E1,3.933748E1,1.6293486E2,1.6123509E2,2.088286E2,1.8770291E2,3.6836392E2,2.2121262E2,7.695091E2,1.2432586E2,2.282545E1,1.4982237E2,5.414974E1,3.205276E1,3.860901E1,8.353143E1,6.1920105E1,3.860901E1,3.1081465E1,1.6269205E1,3.0352993E1,5.3906914E1,2.7196281E1,6.3134227E0,9.22731E0,1.1655549E1,5.584951E0,3.1081465E1,5.244997E1,1.9911564E1,4.7593494E1,4.370831E0,2.161133E1,3.4238174E1,8.668815E1,3.3995352E0,5.5121037E1,1.6997676E0,2.7924753E1,2.3796747E1,1.00771935E2,3.642359E1,7.50326E1,4.2251366E1,1.966874E1,1.1655549E1,4.7836315E1,3.3024055E1,3.1081465E1,2.161133E1,2.9867346E1,4.8321964E1,5.050738E1,6.094881E1,6.3134227E0,1.2626845E1,2.6710634E1,6.1191635E1,1.0174323E2,8.498838E1,7.624672E1,1.4836543E2,6.046316E1,4.9536083E1,1.3816682E2,2.4986584E2,1.18498085E2,5.050738E1,1.7070523E2,3.0110168E1,7.393989E2],"tree_param":{"num_deleted":"0","num_feature":"16","num_nodes":"125","size_leaf_vector":"1"}},{"base_weights":[1.386199E-3,-1.2877601E0,7.729615E-1,-1.6468371E0,-3.2577363E-1,-2.8213066E-1,1.1075248E0,-1.8328376E0,-1.2021526E0,-1.0004308E0,1.7099081E-1,-8.696798E-1,4.6106783E-1,6.3247216E-1,1.2864774E0,-1.9390281E0,-1.6075929E0,-1.5271564E0,-6.615071E-1,-4.819934E-1,-1.3660638E0,4.264783E-1,-6.186742E-1,-6.1647654E-1,-1.4739382E0,7.5481534E-1,-2.508002E-1,7.6364535E-1,-5.349559E-1,9.2182E-1,1.3576869E0,-2.0016174E-1,-1.7429886E0,-1.7474768E0,-1.2090663E0,-1.7283897E0,-1.071846E0,-5.7270236E-2,-1.067785E0,4.3880212E-1,-6.9449675E-1,-9.6832544E-1,-1.5922042E0,1.4542304E-1,8.6948234E-1,-1.006512E0,-1.6519654E-1,-1.0085825E0,-2.0486121E-1,-1.6891222E0,-9.7617966E-1,4.587033E-1,1.1268873E0,-7.2504574E-1,1.3201118E-1,3.0787358E-1,1.0156597E0,-1.149972E0,-1.6413288E-2,4.9232855E-1,1.1947352E0,1.3984672E0,8.976125E-1,-1.8504293E-1,-1.4172742E-1,-1.8635951E-1,-1.3871224E-1,-6.495921E-2,-1.5431213E-1,-1.5835644E-1,-1.9956686E-1,-4.267076E-2,-1.4912663E-1,-8.525598E-2,3.1341366E-2,-7.36823E-2,-1.3440527E-1,-3.574601E-2,7.648287E-2,-1.2710144E-1,-4.047526E-2,-6.640712E-2,-1.6901226E-1,-1.9274622E-1,-1.3737424E-1,-4.644275E-2,3.356946E-2,2.2977956E-2,1.0755563E-1,-1.21340804E-1,-4.275038E-2,1.462313E-2,-8.280882E-2,-1.2370726E-1,-4.855549E-2,-5.046742E-2,3.5306063E-2,-1.3864014E-1,-1.8412356E-1,-1.2514052E-1,-4.794698E-2,3.8507085E-3,7.572355E-2,2.8510246E-2,1.1917366E-1,-3.3265606E-2,-1.5091924E-1,4.066795E-2,-3.384939E-2,7.441856E-2,-5.966346E-3,5.661133E-2,1.1814504E-1,-1.8469687E-1,-7.522019E-2,5.741821E-2,-6.591811E-2,7.493026E-2,-2.6289338E-2,6.4282104E-2,1.3542078E-1,1.23805396E-1,1.4535348E-1,4.381207E-2,1.1669381E-1],"categories":[],"categories_nodes":[],"categories_segments":[],"categories_sizes":[],"default_left":[0,0,0,0,0,0,0,0,0,0,0,0,0,0,0,0,0,0,0,0,0,0,0,0,0,0,0,0,0,0,0,0,0,0,0,0,0,0,0,0,0,0,0,0,0,0,0,0,0,0,0,0,0,0,0,0,0,0,0,0,0,0,0,0,0,0,0,0,0,0,0,0,0,0,0,0,0,0,0,0,0,0,0,0,0,0,0,0,0,0,0,0,0,0,0,0,0,0,0,0,0,0,0,0,0,0,0,0,0,0,0,0,0,0,0,0,0,0,0,0,0,0,0,0,0],"id":1,"left_children":[1,3,5,7,9,11,13,15,17,19,21,23,25,27,29,31,33,35,37,39,41,43,45,47,49,51,53,55,57,59,61,-1,63,65,67,69,71,73,75,77,79,81,83,85,87,89,91,93,95,97,99,101,103,105,107,109,111,113,115,117,119,121,123,-1,-1,-1,-1,-1,-1,-1,-1,-1,-1,-1,-1,-1,-1,-1,-1,-1,-1,-1,-1,-1,-1,-1,-1,-1,-1,-1,-1,-1,-1,-1,-1,-1,-1,-1,-1,-1,-1,-1,-1,-1,-1,-1,-1,-1,-1,-1,-1,-1,-1,-1,-1,-1,-1,-1,-1,-1,-1,-1,-1,-1,-1],"loss_changes":[4.2780054E3,5.5572144E2,9.50069E2,9.4767334E1,1.4728459E2,2.8360382E2,1.7286621E2,1.6609375E1,6.0254547E1,3.465483E1,5.1439808E1,5.4562225E1,6.020445E1,8.631532E1,3.7258057E1,3.3291016E0,1.294397E1,1.802951E1,3.2507576E1,1.5683027E1,8.235291E0,2.3809776E1,1.081109E1,4.1306755E1,9.741287E0,2.1894577E1,1.545208E1,5.7661377E1,1.824009E1,2.817656E1,2.1983643E1,0E0,2.3539124E0,5.6864014E0,1.2718964E1,2.6016846E0,1.8072685E1,1.6303322E1,6.2579193E0,4.2581673E0,1.0216797E1,8.09103E0,2.314087E0,1.3943807E1,9.563656E0,3.487934E0,6.3080263E0,1.5111282E1,2.1378206E1,8.030853E-1,4.1116905E0,1.4391338E1,4.543747E0,1.1170286E1,6.295754E0,2.9093773E1,2.3522522E1,5.867893E0,1.2555722E1,1.9031757E1,1.2274719E1,8.235352E0,1.2314781E1,0E0,0E0,0E0,0E0,0E0,0E0,0E0,0E0,0E0,0E0,0E0,0E0,0E0,0E0,0E0,0E0,0E0,0E0,0E0,0E0,0E0,0E0,0E0,0E0,0E0,0E0,0E0,0E0,0E0,0E0,0E0,0E0,0E0,0E0,0E0,0E0,0E0,0E0,0E0,0E0,0E0,0E0,0E0,0E0,0E0,0E0,0E0,0E0,0E0,0E0,0E0,0E0,0E0,0E0,0E0,0E0,0E0,0E0,0E0,0E0,0E0,0E0],"parents":[2147483647,0,0,1,1,2,2,3,3,4,4,5,5,6,6,7,7,8,8,9,9,10,10,11,11,12,12,13,13,14,14,15,15,16,16,17,17,18,18,19,19,20,20,21,21,22,22,23,23,24,24,25,25,26,26,27,27,28,28,29,29,30,30,32,32,33,33,34,34,35,35,36,36,37,37,38,38,39,39,40,40,41,41,42,42,43,43,44,44,45,45,46,46,47,47,48,48,49,49,50,50,51,51,52,52,53,53,54,54,55,55,56,56,57,57,58,58,59,59,60,60,61,61,62,62],"right_children":[2,4,6,8,10,12,14,16,18,20,22,24,26,28,30,32,34,36,38,40,42,44,46,48,50,52,54,56,58,60,62,-1,64,66,68,70,72,74,76,78,80,82,84,86,88,90,92,94,96,98,100,102,104,106,108,110,112,114,116,118,120,122,124,-1,-1,-1,-1,-1,-1,-1,-1,-1,-1,-1,-1,-1,-1,-1,-1,-1,-1,-1,-1,-1,-1,-1,-1,-1,-1,-1,-1,-1,-1,-1,-1,-1,-1,-1,-1,-1,-1,-1,-1,-1,-1,-1,-1,-1,-1,-1,-1,-1,-1,-1,-1,-1,-1,-1,-1,-1,-1,-1,-1,-1,-1],"split_conditions":[1E0,4E0,3E0,4E0,3E0,4E0,3E0,3E0,3E0,2.6E1,3E1,3E1,2.9E1,3.3E1,4E0,3E0,2E0,3E0,2.5E1,2E0,3E0,5E0,5E0,2E0,3E0,2E0,8E0,4E0,4E0,4E0,3.3E1,-2.0016174E-1,2E0,3E0,2.5E1,3E1,2.5E1,6E0,3E1,2E0,5E0,3.3E1,5E0,4E0,1E0,5E0,3.9E1,2E0,3E0,3.2E1,1E1,2E0,2E0,3E0,3.3E1,2.5E1,6E0,5E0,3.4E1,3E1,1E0,4E0,4E0,-1.8504293E-1,-1.4172742E-1,-1.8635951E-1,-1.3871224E-1,-6.495921E-2,-1.5431213E-1,-1.5835644E-1,-1.9956686E-1,-4.267076E-2,-1.4912663E-1,-8.525598E-2,3.1341366E-2,-7.36823E-2,-1.3440527E-1,-3.574601E-2,7.648287E-2,-1.2710144E-1,-4.047526E-2,-6.640712E-2,-1.6901226E-1,-1.9274622E-1,-1.3737424E-1,-4.644275E-2,3.356946E-2,2.2977956E-2,1.0755563E-1,-1.21340804E-1,-4.275038E-2,1.462313E-2,-8.280882E-2,-1.2370726E-1,-4.855549E-2,-5.046742E-2,3.5306063E-2,-1.3864014E-1,-1.8412356E-1,-1.2514052E-1,-4.794698E-2,3.8507085E-3,7.572355E-2,2.8510246E-2,1.1917366E-1,-3.3265606E-2,-1.5091924E-1,4.066795E-2,-3.384939E-2,7.441856E-2,-5.966346E-3,5.661133E-2,1.1814504E-1,-1.8469687E-1,-7.522019E-2,5.741821E-2,-6.591811E-2,7.493026E-2,-2.6289338E-2,6.4282104E-2,1.3542078E-1,1.23805396E-1,1.4535348E-1,4.381207E-2,1.1669381E-1],"split_indices":[12,4,4,14,14,14,14,4,4,1,1,1,1,1,13,14,10,10,1,7,7,14,4,4,14,10,13,4,4,4,1,0,10,14,1,1,1,13,1,9,13,1,13,13,10,14,2,10,14,1,13,4,13,9,1,1,13,13,1,1,10,14,4,0,0,0,0,0,0,0,0,0,0,0,0,0,0,0,0,0,0,0,0,0,0,0,0,0,0,0,0,0,0,0,0,0,0,0,0,0,0,0,0,0,0,0,0,0,0,0,0,0,0,0,0,0,0,0,0,0,0,0,0,0,0],"split_type":[0,0,0,0,0,0,0,0,0,0,0,0,0,0,0,0,0,0,0,0,0,0,0,0,0,0,0,0,0,0,0,0,0,0,0,0,0,0,0,0,0,0,0,0,0,0,0,0,0,0,0,0,0,0,0,0,0,0,0,0,0,0,0,0,0,0,0,0,0,0,0,0,0,0,0,0,0,0,0,0,0,0,0,0,0,0,0,0,0,0,0,0,0,0,0,0,0,0,0,0,0,0,0,0,0,0,0,0,0,0,0,0,0,0,0,0,0,0,0,0,0,0,0,0,0],"sum_hessian":[4.2989136E3,1.6093485E3,2.689565E3,1.1713947E3,4.3795386E2,6.475577E2,2.0420072E3,8.237282E2,3.476664E2,1.85293E2,2.5266086E2,3.615542E2,2.8600348E2,5.599864E2,1.4820209E3,5.54638E2,2.6909018E2,2.1599715E2,1.3166928E2,7.759207E1,1.07700935E2,1.9124542E2,6.1415436E1,2.5621307E2,1.05341125E2,2.024171E2,8.358637E1,5.0373245E2,5.625393E1,2.444022E2,1.2376187E3,4.134319E2,1.4120612E2,1.9667274E2,7.241745E1,1.4785405E2,6.814309E1,5.3396408E1,7.827287E1,1.4349504E1,6.3242565E1,4.095346E1,6.6747475E1,1.1782311E2,7.34223E1,3.244621E1,2.8969229E1,1.304734E2,1.2573968E2,7.187547E1,3.3465652E1,1.139574E2,8.84597E1,3.693521E1,4.665116E1,1.8015005E2,3.235824E2,2.517614E1,3.107779E1,9.6050224E1,1.4835197E2,1.1349762E3,1.02642395E2,1.0266104E2,3.8545082E1,1.455879E2,5.1084824E1,2.8174858E1,4.424259E1,1.0038508E2,4.746897E1,2.7642176E1,4.0500916E1,1.6562395E1,3.6834015E1,3.7279724E1,4.099315E1,4.1405444E0,1.0208961E1,2.0020386E1,4.322218E1,3.0160242E1,1.0793217E1,2.3247807E1,4.3499664E1,2.7676064E1,9.014705E1,1.8404713E1,5.5017593E1,2.3097246E1,9.348963E0,2.0239891E1,8.729338E0,8.985437E1,4.0619038E1,8.1850655E1,4.388902E1,2.7420397E1,4.4455074E1,2.0556158E1,1.2909493E1,4.7802464E1,6.615493E1,6.7132854E0,8.1746414E1,2.5566084E1,1.1369128E1,2.9541357E1,1.7109804E1,8.189992E1,9.825014E1,8.8372444E1,2.3520995E2,7.823689E0,1.7352451E1,1.6251812E1,1.4825975E1,7.167106E1,2.4379166E1,3.4384052E1,1.13967926E2,2.9605157E2,8.389247E2,3.890092E1,6.3741474E1],"tree_param":{"num_deleted":"0","num_feature":"16","num_nodes":"125","size_leaf_vector":"1"}},{"base_weights":[5.9198067E-3,-1.1565621E0,7.182129E-1,-1.4756413E0,-2.7764252E-1,-2.6408094E-1,1.0338334E0,-1.6473958E0,-1.0792046E0,-8.781304E-1,1.7932278E-1,-1.0107524E0,1.745968E-1,5.7954234E-1,1.2114692E0,-1.7242756E0,-1.4305173E0,-1.5852336E0,-8.111665E-1,-2.794462E-1,-1.1907065E0,4.2964807E-1,-6.4480233E-1,-7.8051144E-1,-1.502077E0,4.1491637E-1,-5.74788E-1,9.188356E-1,2.6367795E-1,1.2400115E0,3.3890453E-1,-1.7917027E-1,-1.585189E0,-1.6457533E0,-1.1215916E0,-1.4387231E0,-1.8298738E-1,-2.2064964E-1,-1.1770324E0,-6.775166E-1,2.324784E-1,-5.415573E-1,-1.3156332E0,1.2851185E-1,9.0127355E-1,-9.3504786E-1,1.820781E-2,-1.0820282E0,-4.3646836E-1,-1.6661647E-1,-1.0601913E0,2.992698E-2,7.335646E-1,-8.6627173E-1,-4.7037996E-2,4.5273444E-1,1.0857558E0,-2.2682051E-1,5.484106E-1,1.0046164E0,1.3224674E0,-3.6895683E-1,7.732039E-1,-1.4385168E-1,-1.7826878E-1,-1.7931935E-1,-1.2645407E-1,-2.6265362E-2,-1.3311024E-1,-1.5755312E-1,-1.0706575E-1,-5.8883518E-2,4.171981E-2,-1.4825557E-1,-9.637668E-2,-1.094862E-1,-2.0990978E-4,1.3224503E-1,-1.7768191E-2,-7.1519874E-2,1.0725404E-1,-1.4572747E-1,-9.350141E-2,-5.7024296E-2,3.4418985E-2,3.3354636E-2,1.0774793E-1,-5.5219084E-2,-1.2634452E-1,9.069409E-2,-2.5917817E-2,-1.2752107E-1,-8.125569E-2,-6.596396E-2,4.5625563E-3,-1.544004E-1,-6.0441684E-2,-3.2295827E-2,6.0706194E-2,5.2535113E-2,1.042612E-1,-6.4120606E-2,-1.535018E-1,2.5427837E-2,-6.144386E-2,1.7933207E-2,1.0813011E-1,8.372228E-2,1.2135899E-1,-8.445195E-2,4.0332153E-3,1.8446248E-2,8.747583E-2,6.665786E-2,1.20952085E-1,1.36357E-1,1.1198691E-1,-8.2735024E-2,8.004746E-2,1.8233925E-2,9.9490605E-2],"categories":[],"categories_nodes":[],"categories_segments":[],"categories_sizes":[],"default_left":[0,0,0,0,0,0,0,0,0,0,0,0,0,0,0,0,0,0,0,0,0,0,0,0,0,0,0,0,0,0,0,0,0,0,0,0,0,0,0,0,0,0,0,0,0,0,0,0,0,0,0,0,0,0,0,0,0,0,0,0,0,0,0,0,0,0,0,0,0,0,0,0,0,0,0,0,0,0,0,0,0,0,0,0,0,0,0,0,0,0,0,0,0,0,0,0,0,0,0,0,0,0,0,0,0,0,0,0,0,0,0,0,0,0,0,0,0,0,0,0,0],"id":2,"left_children":[1,3,5,7,9,11,13,15,17,19,21,23,25,27,29,31,33,35,37,39,41,43,45,47,49,51,53,55,57,59,61,-1,63,65,67,69,-1,71,73,75,77,79,81,83,85,87,89,91,93,-1,95,97,99,101,103,105,107,109,111,113,115,117,119,-1,-1,-1,-1,-1,-1,-1,-1,-1,-1,-1,-1,-1,-1,-1,-1,-1,-1,-1,-1,-1,-1,-1,-1,-1,-1,-1,-1,-1,-1,-1,-1,-1,-1,-1,-1,-1,-1,-1,-1,-1,-1,-1,-1,-1,-1,-1,-1,-1,-1,-1,-1,-1,-1,-1,-1,-1,-1],"loss_changes":[3.5154924E3,4.5196558E2,8.1644934E2,7.878589E1,1.18386536E2,2.1012448E2,1.6009644E2,1.1266846E1,4.7618866E1,3.4541733E1,5.092352E1,2.567839E1,7.3105354E1,5.9991577E1,3.523242E1,2.8167725E0,1.2877136E1,1.804779E0,5.1107635E1,1.3450449E1,9.191727E0,2.6712917E1,1.1100632E1,1.6509392E1,3.646698E0,3.7632664E1,1.5137142E1,2.0558975E1,4.097106E1,2.5570068E1,1.4648123E1,0E0,3.3920288E0,4.9472046E0,1.6577751E1,2.4477386E0,0E0,2.1894964E1,8.121429E0,1.0413757E1,1.3324722E1,6.7677145E0,4.121277E0,1.7746944E1,6.988037E0,4.3413963E0,4.800093E0,3.4702682E0,8.436659E0,0E0,4.1308174E0,2.8717817E1,1.0256187E1,8.573753E0,6.33891E0,1.2361632E1,5.290695E0,1.787735E1,2.185242E1,2.4383423E1,6.993164E0,1.054826E1,3.6538944E0,0E0,0E0,0E0,0E0,0E0,0E0,0E0,0E0,0E0,0E0,0E0,0E0,0E0,0E0,0E0,0E0,0E0,0E0,0E0,0E0,0E0,0E0,0E0,0E0,0E0,0E0,0E0,0E0,0E0,0E0,0E0,0E0,0E0,0E0,0E0,0E0,0E0,0E0,0E0,0E0,0E0,0E0,0E0,0E0,0E0,0E0,0E0,0E0,0E0,0E0,0E0,0E0,0E0,0E0,0E0,0E0,0E0,0E0],"parents":[2147483647,0,0,1,1,2,2,3,3,4,4,5,5,6,6,7,7,8,8,9,9,10,10,11,11,12,12,13,13,14,14,15,15,16,16,17,17,18,18,19,19,20,20,21,21,22,22,23,23,24,24,25,25,26,26,27,27,28,28,29,29,30,30,32,32,33,33,34,34,35,35,37,37,38,38,39,39,40,40,41,41,42,42,43,43,44,44,45,45,46,46,47,47,48,48,50,50,51,51,52,52,53,53,54,54,55,55,56,56,57,57,58,58,59,59,60,60,61,61,62,62],"right_children":[2,4,6,8,10,12,14,16,18,20,22,24,26,28,30,32,34,36,38,40,42,44,46,48,50,52,54,56,58,60,62,-1,64,66,68,70,-1,72,74,76,78,80,82,84,86,88,90,92,94,-1,96,98,100,102,104,106,108,110,112,114,116,118,120,-1,-1,-1,-1,-1,-1,-1,-1,-1,-1,-1,-1,-1,-1,-1,-1,-1,-1,-1,-1,-1,-1,-1,-1,-1,-1,-1,-1,-1,-1,-1,-1,-1,-1,-1,-1,-1,-1,-1,-1,-1,-1,-1,-1,-1,-1,-1,-1,-1,-1,-1,-1,-1,-1,-1,-1,-1,-1],"split_conditions":[1E0,4E0,3E0,4E0,3E0,3E0,3E0,2E0,2E0,2.5E1,3E1,3E1,3E1,2.6E1,3.4E1,3E0,8E0,3E1,2.5E1,5E0,2E0,5E0,1E1,2E0,2E0,2E0,5E0,6E0,4E0,6E0,4E0,-1.7917027E-1,3E1,3E0,2.2E1,2E0,-1.8298738E-1,2E0,6E0,1E1,2E1,5E1,2E0,4E0,1E0,2E0,2E0,8E0,1E1,-1.6661647E-1,2E0,2E0,5E0,3.4E1,3.9E1,5E0,4E0,1E0,8E0,4E0,3E1,2E0,4E0,-1.4385168E-1,-1.7826878E-1,-1.7931935E-1,-1.2645407E-1,-2.6265362E-2,-1.3311024E-1,-1.5755312E-1,-1.0706575E-1,-5.8883518E-2,4.171981E-2,-1.4825557E-1,-9.637668E-2,-1.094862E-1,-2.0990978E-4,1.3224503E-1,-1.7768191E-2,-7.1519874E-2,1.0725404E-1,-1.4572747E-1,-9.350141E-2,-5.7024296E-2,3.4418985E-2,3.3354636E-2,1.0774793E-1,-5.5219084E-2,-1.2634452E-1,9.069409E-2,-2.5917817E-2,-1.2752107E-1,-8.125569E-2,-6.596396E-2,4.5625563E-3,-1.544004E-1,-6.0441684E-2,-3.2295827E-2,6.0706194E-2,5.2535113E-2,1.042612E-1,-6.4120606E-2,-1.535018E-1,2.5427837E-2,-6.144386E-2,1.7933207E-2,1.0813011E-1,8.372228E-2,1.2135899E-1,-8.445195E-2,4.0332153E-3,1.8446248E-2,8.747583E-2,6.665786E-2,1.20952085E-1,1.36357E-1,1.1198691E-1,-8.2735024E-2,8.004746E-2,1.8233925E-2,9.9490605E-2],"split_indices":[12,4,4,14,14,14,14,10,4,1,1,1,1,1,1,4,13,1,1,4,7,14,13,4,10,4,14,13,4,13,4,0,1,4,1,10,0,10,13,13,1,2,10,13,10,9,7,13,13,0,4,10,14,1,2,4,4,10,13,4,1,10,14,0,0,0,0,0,0,0,0,0,0,0,0,0,0,0,0,0,0,0,0,0,0,0,0,0,0,0,0,0,0,0,0,0,0,0,0,0,0,0,0,0,0,0,0,0,0,0,0,0,0,0,0,0,0,0,0,0,0],"split_type":[0,0,0,0,0,0,0,0,0,0,0,0,0,0,0,0,0,0,0,0,0,0,0,0,0,0,0,0,0,0,0,0,0,0,0,0,0,0,0,0,0,0,0,0,0,0,0,0,0,0,0,0,0,0,0,0,0,0,0,0,0,0,0,0,0,0,0,0,0,0,0,0,0,0,0,0,0,0,0,0,0,0,0,0,0,0,0,0,0,0,0,0,0,0,0,0,0,0,0,0,0,0,0,0,0,0,0,0,0,0,0,0,0,0,0,0,0,0,0,0,0],"sum_hessian":[4.2436177E3,1.6120629E3,2.6315547E3,1.1822023E3,4.2986063E2,6.399683E2,1.9915864E3,8.226411E2,3.5956122E2,1.8536066E2,2.4449995E2,2.3635886E2,4.0360947E2,5.6103687E2,1.4305496E3,6.022154E2,2.204257E2,1.2280446E2,2.3675674E2,6.4231186E1,1.2112948E2,1.8790353E2,5.6596416E1,1.6270282E2,7.365604E1,3.0594315E2,9.766633E1,2.6956656E2,2.9147034E2,1.3848295E3,4.5720013E1,3.975887E2,2.0462668E2,1.2736217E2,9.306354E1,8.111011E1,4.169435E1,9.1184975E1,1.4557178E2,3.5951775E1,2.8279411E1,2.0409872E1,1.00719604E2,1.1545633E2,7.2447205E1,3.9078667E1,1.7517752E1,8.5567276E1,7.7135544E1,5.169085E1,2.196519E1,1.3904433E2,1.6689882E2,6.2503387E1,3.516294E1,7.206038E1,1.9750618E2,1.0712808E2,1.8434225E2,3.626685E2,1.022161E3,1.7441954E1,2.8278059E1,1.2217637E2,8.245031E1,8.91702E1,3.8191963E1,1.8690632E1,7.437291E1,5.6739697E1,2.4370413E1,5.786204E1,3.332293E1,5.7395523E1,8.8176254E1,2.1837318E1,1.4114455E1,7.123907E0,2.1155504E1,1.8930294E1,1.4795787E0,7.134204E1,2.937756E1,2.6843773E1,8.861256E1,1.7844845E1,5.460236E1,1.928131E1,1.9797356E1,3.627094E0,1.3890657E1,4.7664562E1,3.790271E1,5.2475346E1,2.46602E1,9.496665E0,1.2468526E1,8.655889E1,5.2485435E1,1.0132999E2,6.556884E1,4.8230343E1,1.4273043E1,2.332704E1,1.18359E1,5.111334E1,2.0947037E1,6.964766E1,1.2785851E2,3.1691399E1,7.543668E1,8.789056E1,9.645169E1,1.3847491E2,2.2419359E2,8.4499994E2,1.7716107E2,1.2740468E1,4.701486E0,8.212676E0,2.0065384E1],"tree_param":{"num_deleted":"0","num_feature":"16","num_nodes":"121","size_leaf_vector":"1"}},{"base_weights":[1.4605461E-2,-1.0455924E0,6.6746783E-1,-1.334554E0,-2.5241676E-1,-2.27531E-1,9.65858E-1,-1.4992256E0,-9.5687854E-1,-7.8526574E-1,1.5728724E-1,-6.933455E-1,3.9144954E-1,5.2775145E-1,1.1399381E0,-1.5916423E0,-1.3108565E0,-1.2376537E0,-4.9117452E-1,-3.166132E-1,-1.1071787E0,3.716546E-1,-4.684986E-1,-4.8998132E-1,-1.1657858E0,6.2656313E-1,-1.6513757E-1,6.5012676E-1,-4.9185002E-1,7.8032315E-1,1.2093568E0,-1.057687E0,-1.6075294E0,-1.4397814E0,-9.181744E-1,-1.5261291E-1,-1.0336515E0,-1.5825813E-1,-1.1514028E0,-9.518655E-1,-8.6594075E-2,-6.631827E-1,-1.3507385E0,-1.2937103E-1,5.8241874E-1,-1.2256936E0,-2.9662135E-1,-8.0082744E-1,-1.5274893E-1,-1.3289425E0,-7.92016E-1,-3.3425126E-2,8.2576776E-1,-6.664369E-1,1.7252982E-1,4.3813744E-1,1.0979127E0,-1.0322597E0,-7.788619E-2,2.5226048E-1,9.635671E-1,1.2480524E0,7.88036E-1,-1.4754532E-1,-1.0311851E-2,-1.6592188E-1,-1.4440086E-1,-1.21474914E-1,-1.5435992E-1,1.2516392E-3,-1.0728909E-1,-7.5266406E-2,-1.4209501E-1,-8.248262E-2,1.6296765E-2,-1.4148949E-1,-8.12419E-2,-1.394137E-1,-3.1565353E-2,5.4347545E-2,-5.1477876E-2,-9.726198E-2,-2.3399988E-2,-1.490261E-1,-9.141398E-2,-3.396668E-2,4.9034566E-2,8.345132E-2,8.933048E-3,-1.6214228E-1,-1.9340936E-2,-5.9266247E-2,3.103808E-2,-9.9042766E-2,-3.820155E-2,-3.7166975E-2,2.7227549E-2,-1.4371984E-1,-1.0274694E-1,-5.3580124E-2,-1.4303851E-1,-4.257638E-2,4.3536074E-2,5.313868E-3,9.223195E-2,2.9286519E-2,-1.0005244E-1,4.325233E-2,-3.664384E-2,7.716375E-2,1.4295238E-2,6.558853E-2,1.2342526E-1,-1.3182087E-1,-5.360766E-3,5.2876126E-2,-7.827257E-2,7.487132E-2,-2.1855427E-2,6.7709275E-2,1.1504886E-1,1.0888845E-1,1.3041632E-1,3.1246334E-2,1.0391797E-1],"categories":[],"categories_nodes":[],"categories_segments":[],"categories_sizes":[],"default_left":[0,0,0,0,0,0,0,0,0,0,0,0,0,0,0,0,0,0,0,0,0,0,0,0,0,0,0,0,0,0,0,0,0,0,0,0,0,0,0,0,0,0,0,0,0,0,0,0,0,0,0,0,0,0,0,0,0,0,0,0,0,0,0,0,0,0,0,0,0,0,0,0,0,0,0,0,0,0,0,0,0,0,0,0,0,0,0,0,0,0,0,0,0,0,0,0,0,0,0,0,0,0,0,0,0,0,0,0,0,0,0,0,0,0,0,0,0,0,0,0,0,0,0,0,0],"id":3,"left_children":[1,3,5,7,9,11,13,15,17,19,21,23,25,27,29,31,33,35,37,39,41,43,45,47,49,51,53,55,57,59,61,63,65,67,69,-1,71,73,75,77,79,81,83,85,87,89,91,93,95,97,99,101,103,105,107,109,111,113,115,117,119,121,123,-1,-1,-1,-1,-1,-1,-1,-1,-1,-1,-1,-1,-1,-1,-1,-1,-1,-1,-1,-1,-1,-1,-1,-1,-1,-1,-1,-1,-1,-1,-1,-1,-1,-1,-1,-1,-1,-1,-1,-1,-1,-1,-1,-1,-1,-1,-1,-1,-1,-1,-1,-1,-1,-1,-1,-1,-1,-1,-1,-1,-1,-1],"loss_changes":[2.8920073E3,3.646278E2,6.907932E2,7.113916E1,9.321957E1,1.8692596E2,1.4731433E2,1.2029175E1,4.6082397E1,2.7639381E1,3.262586E1,3.495291E1,3.656393E1,6.936594E1,3.3684204E1,2.8745117E0,1.2476135E1,1.149353E1,2.9703037E1,1.1161046E1,1.0954407E1,1.9161549E1,7.727045E0,2.7154354E1,5.6884766E0,2.5807503E1,1.42549515E1,4.645984E1,1.3312877E1,2.1747284E1,1.7942139E1,7.2278366E0,2.0145264E0,2.8773499E0,1.0111034E1,0E0,1.3426376E1,1.9736364E1,2.9072456E0,5.287401E0,1.5817208E1,5.1886024E0,2.889557E0,7.247987E0,1.5762684E1,4.2540703E0,9.525511E0,1.0354599E1,1.1828933E1,9.8651123E-1,5.1323414E0,8.723742E0,1.1190178E1,1.1134048E1,7.2640395E0,3.3092865E1,8.725845E0,7.1736107E0,1.5371842E1,1.4164413E1,8.236252E0,8.060303E0,1.1662243E1,0E0,0E0,0E0,0E0,0E0,0E0,0E0,0E0,0E0,0E0,0E0,0E0,0E0,0E0,0E0,0E0,0E0,0E0,0E0,0E0,0E0,0E0,0E0,0E0,0E0,0E0,0E0,0E0,0E0,0E0,0E0,0E0,0E0,0E0,0E0,0E0,0E0,0E0,0E0,0E0,0E0,0E0,0E0,0E0,0E0,0E0,0E0,0E0,0E0,0E0,0E0,0E0,0E0,0E0,0E0,0E0,0E0,0E0,0E0,0E0,0E0,0E0],"parents":[2147483647,0,0,1,1,2,2,3,3,4,4,5,5,6,6,7,7,8,8,9,9,10,10,11,11,12,12,13,13,14,14,15,15,16,16,17,17,18,18,19,19,20,20,21,21,22,22,23,23,24,24,25,25,26,26,27,27,28,28,29,29,30,30,31,31,32,32,33,33,34,34,36,36,37,37,38,38,39,39,40,40,41,41,42,42,43,43,44,44,45,45,46,46,47,47,48,48,49,49,50,50,51,51,52,52,53,53,54,54,55,55,56,56,57,57,58,58,59,59,60,60,61,61,62,62],"right_children":[2,4,6,8,10,12,14,16,18,20,22,24,26,28,30,32,34,36,38,40,42,44,46,48,50,52,54,56,58,60,62,64,66,68,70,-1,72,74,76,78,80,82,84,86,88,90,92,94,96,98,100,102,104,106,108,110,112,114,116,118,120,122,124,-1,-1,-1,-1,-1,-1,-1,-1,-1,-1,-1,-1,-1,-1,-1,-1,-1,-1,-1,-1,-1,-1,-1,-1,-1,-1,-1,-1,-1,-1,-1,-1,-1,-1,-1,-1,-1,-1,-1,-1,-1,-1,-1,-1,-1,-1,-1,-1,-1,-1,-1,-1,-1,-1,-1,-1,-1,-1,-1,-1,-1,-1],"split_conditions":[1E0,4E0,3E0,4E0,3E0,4E0,3E0,3E0,3E0,2.6E1,3E1,3E1,2.9E1,3.3E1,4E0,1.9E1,2E0,6E0,3E1,4E0,3E0,1E0,3E0,2E0,3E0,1E0,2E0,5E0,4E0,1E0,3.3E1,2E0,3E0,3E0,2E0,-1.5261291E-1,2.9E1,6E0,8E0,5E0,3E0,1E0,2E0,1.1E1,4E0,2E0,5E0,2E0,3E0,2E0,3.4E1,5E0,3E0,1.6E1,3.3E1,2.5E1,1E0,8.95E0,3.4E1,2.5E1,4E0,4E0,4E0,-1.4754532E-1,-1.0311851E-2,-1.6592188E-1,-1.4440086E-1,-1.21474914E-1,-1.5435992E-1,1.2516392E-3,-1.0728909E-1,-7.5266406E-2,-1.4209501E-1,-8.248262E-2,1.6296765E-2,-1.4148949E-1,-8.12419E-2,-1.394137E-1,-3.1565353E-2,5.4347545E-2,-5.1477876E-2,-9.726198E-2,-2.3399988E-2,-1.490261E-1,-9.141398E-2,-3.396668E-2,4.9034566E-2,8.345132E-2,8.933048E-3,-1.6214228E-1,-1.9340936E-2,-5.9266247E-2,3.103808E-2,-9.9042766E-2,-3.820155E-2,-3.7166975E-2,2.7227549E-2,-1.4371984E-1,-1.0274694E-1,-5.3580124E-2,-1.4303851E-1,-4.257638E-2,4.3536074E-2,5.313868E-3,9.223195E-2,2.9286519E-2,-1.0005244E-1,4.325233E-2,-3.664384E-2,7.716375E-2,1.4295238E-2,6.558853E-2,1.2342526E-1,-1.3182087E-1,-5.360766E-3,5.2876126E-2,-7.827257E-2,7.487132E-2,-2.1855427E-2,6.7709275E-2,1.1504886E-1,1.0888845E-1,1.3041632E-1,3.1246334E-2,1.0391797E-1],"split_indices":[12,4,4,14,14,14,14,4,4,1,1,1,1,1,13,1,10,13,1,13,7,10,13,4,14,10,4,4,4,10,1,10,14,7,7,0,1,13,13,4,7,15,10,13,7,10,14,10,14,10,1,14,13,2,1,1,10,6,1,1,4,14,4,0,0,0,0,0,0,0,0,0,0,0,0,0,0,0,0,0,0,0,0,0,0,0,0,0,0,0,0,0,0,0,0,0,0,0,0,0,0,0,0,0,0,0,0,0,0,0,0,0,0,0,0,0,0,0,0,0,0,0,0,0,0],"split_type":[0,0,0,0,0,0,0,0,0,0,0,0,0,0,0,0,0,0,0,0,0,0,0,0,0,0,0,0,0,0,0,0,0,0,0,0,0,0,0,0,0,0,0,0,0,0,0,0,0,0,0,0,0,0,0,0,0,0,0,0,0,0,0,0,0,0,0,0,0,0,0,0,0,0,0,0,0,0,0,0,0,0,0,0,0,0,0,0,0,0,0,0,0,0,0,0,0,0,0,0,0,0,0,0,0,0,0,0,0,0,0,0,0,0,0,0,0,0,0,0,0,0,0,0,0],"sum_hessian":[4.1762075E3,1.5913604E3,2.5848474E3,1.1659213E3,4.2543906E2,6.4636414E2,1.9384832E3,8.0984735E2,3.560739E2,1.8452919E2,2.4090988E2,3.6874475E2,2.776194E2,5.5236957E2,1.3861136E3,5.3829987E2,2.7154752E2,2.2110876E2,1.3496516E2,7.594673E1,1.0858245E2,1.7974355E2,6.1166325E1,2.5920563E2,1.0953914E2,1.9508559E2,8.25338E1,4.9350067E2,5.8868896E1,2.2625691E2,1.1598567E3,1.7506102E1,5.2079376E2,2.02422E2,6.912551E1,8.8906715E1,1.3220206E2,9.0547035E1,4.441813E1,1.9355032E1,5.65917E1,3.978304E1,6.879941E1,5.3337223E1,1.2640633E2,1.0181428E1,5.0984898E1,1.341642E2,1.2504142E2,7.4474335E1,3.5064804E1,4.5423714E1,1.4966188E2,3.2826332E1,4.9707466E1,3.3627905E2,1.5722162E2,2.4886795E1,3.39821E1,5.889966E1,1.6735725E2,1.0604948E3,9.936198E1,1.1797332E1,5.7087693E0,3.8875912E2,1.3203462E2,6.791414E1,1.3450786E2,9.984323E0,5.914119E1,7.832221E1,5.3879837E1,2.8935635E1,6.16114E1,2.3206106E1,2.121202E1,1.0715026E1,8.640007E0,2.2788862E1,3.380284E1,2.2380604E1,1.7402435E1,5.0308983E1,1.8490427E1,4.0160866E1,1.3176358E1,8.318503E1,4.3221294E1,6.947406E0,3.2340224E0,3.4286602E1,1.6698298E1,9.141493E1,4.2749268E1,8.261418E1,4.2427235E1,5.2025352E1,2.2448982E1,2.6334541E1,8.730262E0,2.4778086E1,2.064563E1,1.6797205E1,1.3286467E2,8.51104E0,2.4315294E1,3.366518E1,1.6042286E1,1.5713448E2,1.7914458E2,3.8431965E1,1.1878965E2,1.8990936E1,5.8958583E0,1.8397444E1,1.5584659E1,2.8381945E1,3.0517714E1,6.7906555E1,9.94507E1,2.8172845E2,7.7876624E2,3.5113766E1,6.4248215E1],"tree_param":{"num_deleted":"0","num_feature":"16","num_nodes":"125","size_leaf_vector":"1"}},{"base_weights":[1.1257539E-2,-8.266579E-1,4.3899083E-1,-1.1288179E0,-2.7781492E-1,-1.4951421E-1,7.4883753E-1,-1.2611005E0,-8.059687E-1,-2.9267546E-2,-7.4327654E-1,-5.927189E-1,1.939827E-1,4.0517247E-1,9.6873295E-1,-1.3991979E0,-1.0854723E0,-5.899475E-1,-1.2497885E0,-3.3875558E-1,4.377628E-1,-9.721864E-1,-3.046883E-1,-3.7399474E-1,-1.0404011E0,4.0639868E-1,-3.6457753E-1,6.294532E-1,-2.5520992E-1,6.543524E-1,1.0682217E0,-1.4903711E-1,-1.2750742E0,-8.770282E-1,-1.284725E0,-9.165989E-1,-1.748711E-1,-1.3159494E0,-7.185914E-1,-6.917247E-1,8.994501E-3,-5.4014206E-2,8.260459E-1,-1.188844E0,-7.120416E-1,-6.8064046E-1,3.7097152E-2,-1.0598661E0,-2.1735159E-1,-4.66393E-1,-1.1509652E0,-1.8641493E-1,6.087184E-1,-5.2297615E-2,-8.964885E-1,2.0686221E-1,7.992331E-1,-5.5552953E-1,2.4648446E-1,9.8118514E-1,3.490722E-1,1.1113783E0,6.1170936E-1,-9.3942426E-2,-1.3637598E-1,-1.2935123E-1,-7.631817E-2,-1.0078492E-1,-1.3698323E-1,-1.1386924E-1,-4.174733E-2,-8.367925E-2,1.7332109E-3,-4.315568E-2,-1.3496149E-1,-1.0767114E-1,1.6445361E-2,-9.507431E-2,-3.5310816E-2,-6.222272E-2,2.3604006E-2,-4.857016E-2,2.9148906E-2,9.737465E-2,2.8403578E-2,-6.758442E-2,-1.306544E-1,-9.493743E-2,-2.7866973E-2,2.4415256E-2,-8.3378375E-2,-7.353841E-3,9.4592944E-2,-1.3497993E-1,-6.950939E-2,-4.11984E-2,2.1087242E-2,-5.8229566E-2,9.0360515E-2,-1.2665515E-1,-7.742833E-2,5.4527827E-2,-3.8019504E-2,7.914314E-2,2.3829004E-2,2.5919681E-2,-4.4255663E-2,-1.0165812E-1,1.0360292E-2,-8.966021E-3,6.6085964E-2,6.2051482E-2,1.0821462E-1,-1.0078261E-1,-2.9422885E-2,-4.581589E-2,5.2144706E-2,5.5087704E-2,1.0750488E-1,-4.55175E-2,4.7307085E-2,9.989338E-2,1.2544154E-1,7.681882E-2,-1.7763158E-2],"categories":[],"categories_nodes":[],"categories_segments":[],"categories_sizes":[],"default_left":[0,0,0,0,0,0,0,0,0,0,0,0,0,0,0,0,0,0,0,0,0,0,0,0,0,0,0,0,0,0,0,0,0,0,0,0,0,0,0,0,0,0,0,0,0,0,0,0,0,0,0,0,0,0,0,0,0,0,0,0,0,0,0,0,0,0,0,0,0,0,0,0,0,0,0,0,0,0,0,0,0,0,0,0,0,0,0,0,0,0,0,0,0,0,0,0,0,0,0,0,0,0,0,0,0,0,0,0,0,0,0,0,0,0,0,0,0,0,0,0,0,0,0,0,0],"id":4,"left_children":[1,3,5,7,9,11,13,15,17,19,21,23,25,27,29,31,33,35,37,39,41,43,45,47,49,51,53,55,57,59,61,-1,63,65,67,69,71,73,75,77,79,81,83,85,87,89,91,93,95,97,99,101,103,105,107,109,111,113,115,117,119,121,123,-1,-1,-1,-1,-1,-1,-1,-1,-1,-1,-1,-1,-1,-1,-1,-1,-1,-1,-1,-1,-1,-1,-1,-1,-1,-1,-1,-1,-1,-1,-1,-1,-1,-1,-1,-1,-1,-1,-1,-1,-1,-1,-1,-1,-1,-1,-1,-1,-1,-1,-1,-1,-1,-1,-1,-1,-1,-1,-1,-1,-1,-1],"loss_changes":[1.4589188E3,2.27828E2,4.915166E2,3.686084E1,5.6640785E1,1.4174623E2,1.3303284E2,1.3696899E1,2.4242462E1,4.6448803E1,1.6816765E1,3.941017E1,6.2422234E1,1.0245042E2,3.2953857E1,2.0350342E0,1.0527985E1,2.385756E1,2.0207214E0,2.3723402E1,2.4506346E1,5.4402466E0,7.7235208E0,2.9272831E1,7.8939667E0,4.577761E1,2.406102E1,3.6844025E1,2.662455E1,2.5721375E1,1.5391113E1,0E0,3.3084717E0,5.6649246E0,1.9494781E0,1.0487289E1,1.0096675E1,1.6164474E0,3.8299913E0,8.075901E0,1.4237465E1,8.711582E0,5.4591446E0,2.7013931E0,5.2049313E0,4.2514114E0,3.320299E0,4.43417E0,1.8824024E1,4.199908E0,3.8393707E0,1.40517025E1,1.9039192E1,1.1360557E1,6.546047E0,2.0143435E1,1.7916885E1,1.27367325E1,1.3127649E1,4.481079E0,1.3839647E1,1.0713928E1,9.113369E0,0E0,0E0,0E0,0E0,0E0,0E0,0E0,0E0,0E0,0E0,0E0,0E0,0E0,0E0,0E0,0E0,0E0,0E0,0E0,0E0,0E0,0E0,0E0,0E0,0E0,0E0,0E0,0E0,0E0,0E0,0E0,0E0,0E0,0E0,0E0,0E0,0E0,0E0,0E0,0E0,0E0,0E0,0E0,0E0,0E0,0E0,0E0,0E0,0E0,0E0,0E0,0E0,0E0,0E0,0E0,0E0,0E0,0E0,0E0,0E0,0E0,0E0],"parents":[2147483647,0,0,1,1,2,2,3,3,4,4,5,5,6,6,7,7,8,8,9,9,10,10,11,11,12,12,13,13,14,14,15,15,16,16,17,17,18,18,19,19,20,20,21,21,22,22,23,23,24,24,25,25,26,26,27,27,28,28,29,29,30,30,32,32,33,33,34,34,35,35,36,36,37,37,38,38,39,39,40,40,41,41,42,42,43,43,44,44,45,45,46,46,47,47,48,48,49,49,50,50,51,51,52,52,53,53,54,54,55,55,56,56,57,57,58,58,59,59,60,60,61,61,62,62],"right_children":[2,4,6,8,10,12,14,16,18,20,22,24,26,28,30,32,34,36,38,40,42,44,46,48,50,52,54,56,58,60,62,-1,64,66,68,70,72,74,76,78,80,82,84,86,88,90,92,94,96,98,100,102,104,106,108,110,112,114,116,118,120,122,124,-1,-1,-1,-1,-1,-1,-1,-1,-1,-1,-1,-1,-1,-1,-1,-1,-1,-1,-1,-1,-1,-1,-1,-1,-1,-1,-1,-1,-1,-1,-1,-1,-1,-1,-1,-1,-1,-1,-1,-1,-1,-1,-1,-1,-1,-1,-1,-1,-1,-1,-1,-1,-1,-1,-1,-1,-1,-1,-1,-1,-1,-1],"split_conditions":[3E0,4E0,3E0,3E0,2.9E1,4E0,4E0,8E0,3E1,3E0,1E1,3E1,3E1,3E1,1E0,2E0,2.7E1,2E0,1.2E1,2E0,8E0,5E0,2E0,3E0,2E0,5E0,4E0,6E0,1E1,2.5E1,3.3E1,-1.4903711E-1,1E0,4E0,1.6E1,2E0,4E0,1E0,3.9E1,5E0,5E0,2E0,3E0,3E1,2E0,6E0,4.9E1,2E0,2E0,1.2E1,2E0,2E0,4E0,3.3E1,1.2E1,2E0,5E0,4E0,1E0,4E0,3E0,5E0,5E0,-9.3942426E-2,-1.3637598E-1,-1.2935123E-1,-7.631817E-2,-1.0078492E-1,-1.3698323E-1,-1.1386924E-1,-4.174733E-2,-8.367925E-2,1.7332109E-3,-4.315568E-2,-1.3496149E-1,-1.0767114E-1,1.6445361E-2,-9.507431E-2,-3.5310816E-2,-6.222272E-2,2.3604006E-2,-4.857016E-2,2.9148906E-2,9.737465E-2,2.8403578E-2,-6.758442E-2,-1.306544E-1,-9.493743E-2,-2.7866973E-2,2.4415256E-2,-8.3378375E-2,-7.353841E-3,9.4592944E-2,-1.3497993E-1,-6.950939E-2,-4.11984E-2,2.1087242E-2,-5.8229566E-2,9.0360515E-2,-1.2665515E-1,-7.742833E-2,5.4527827E-2,-3.8019504E-2,7.914314E-2,2.3829004E-2,2.5919681E-2,-4.4255663E-2,-1.0165812E-1,1.0360292E-2,-8.966021E-3,6.6085964E-2,6.2051482E-2,1.0821462E-1,-1.0078261E-1,-2.9422885E-2,-4.581589E-2,5.2144706E-2,5.5087704E-2,1.0750488E-1,-4.55175E-2,4.7307085E-2,9.989338E-2,1.2544154E-1,7.681882E-2,-1.7763158E-2],"split_indices":[4,14,14,14,1,4,4,13,1,10,13,1,1,1,10,4,1,4,13,4,13,14,4,13,7,13,7,13,13,1,1,0,9,11,2,10,13,11,2,14,13,4,9,1,10,2,2,14,10,13,10,7,7,1,13,10,14,14,10,13,13,14,7,0,0,0,0,0,0,0,0,0,0,0,0,0,0,0,0,0,0,0,0,0,0,0,0,0,0,0,0,0,0,0,0,0,0,0,0,0,0,0,0,0,0,0,0,0,0,0,0,0,0,0,0,0,0,0,0,0,0,0,0,0,0],"split_type":[0,0,0,0,0,0,0,0,0,0,0,0,0,0,0,0,0,0,0,0,0,0,0,0,0,0,0,0,0,0,0,0,0,0,0,0,0,0,0,0,0,0,0,0,0,0,0,0,0,0,0,0,0,0,0,0,0,0,0,0,0,0,0,0,0,0,0,0,0,0,0,0,0,0,0,0,0,0,0,0,0,0,0,0,0,0,0,0,0,0,0,0,0,0,0,0,0,0,0,0,0,0,0,0,0,0,0,0,0,0,0,0,0,0,0,0,0,0,0,0,0,0,0,0,0],"sum_hessian":[4.0685825E3,1.3746858E3,2.6938967E3,8.8590356E2,4.887822E2,9.2931903E2,1.7645778E3,6.26357E2,2.595466E2,3.193294E2,1.6945279E2,4.0545108E2,5.23868E2,6.8962885E2,1.0749489E3,3.467438E2,2.796132E2,1.7614198E2,8.340463E1,1.9222314E2,1.2710628E2,1.1054173E2,5.8911053E1,2.7360916E2,1.3184189E2,3.7973154E2,1.4413644E2,5.1482837E2,1.7480048E2,2.6022504E2,8.147238E2,1.9356015E2,1.5318365E2,1.3929456E2,1.4031863E2,9.789421E1,7.8247765E1,7.2853386E1,1.05512495E1,9.490483E1,9.731831E1,5.6459198E1,7.064708E1,5.8364143E1,5.217759E1,2.7581228E1,3.1329823E1,4.9798286E1,2.2381088E2,2.2136374E1,1.0970552E2,9.664176E1,2.8308978E2,9.151006E1,5.2626377E1,1.481912E2,3.666372E2,1.0927812E2,6.5522354E1,1.2460694E2,1.356181E2,7.4304517E2,7.167864E1,3.4438038E1,1.1874561E2,2.7678085E1,1.1161646E2,3.6010258E1,1.0430838E2,6.686172E1,3.1032495E1,1.6853376E1,6.139439E1,3.1783056E0,6.967508E1,7.3508043E0,3.200445E0,5.274829E1,4.2156536E1,2.5284094E1,7.203422E1,2.4918776E1,3.1540422E1,5.4892136E1,1.5754944E1,1.215E1,4.6214146E1,3.2944904E1,1.9232683E1,3.834059E0,2.374717E1,2.8749165E1,2.580659E0,2.6240812E1,2.3557472E1,1.5389973E2,6.991115E1,2.0939817E1,1.1965549E0,8.213861E1,2.7566912E1,1.9855518E1,7.678624E1,1.888188E2,9.427097E1,5.1077324E1,4.0432735E1,4.696969E1,5.6566887E0,9.012788E1,5.8063316E1,2.266525E2,1.3998471E2,3.8968655E1,7.030947E1,1.820426E1,4.7318092E1,2.354343E1,1.01063515E2,1.7759607E1,1.1785849E2,4.2048047E2,3.2256473E2,5.9842308E1,1.1836332E1],"tree_param":{"num_deleted":"0","num_feature":"16","num_nodes":"125","size_leaf_vector":"1"}},{"base_weights":[-8.446551E-3,-7.7291286E-1,3.8927296E-1,-1.0404673E0,-2.9524726E-1,-1.5481935E-1,6.804296E-1,-1.1555079E0,-7.5912416E-1,-9.5067255E-2,-8.0938166E-1,-5.596882E-1,1.6037408E-1,3.613452E-1,8.9526594E-1,-1.2506719E0,-9.2622095E-1,-9.806964E-1,-4.7184318E-1,-4.4918585E-1,2.293387E-1,-1.1100895E0,-4.6132207E-1,-1.4988369E-1,-7.8660244E-1,3.5882103E-1,-3.5211042E-1,5.7781017E-1,-2.4166265E-1,5.812341E-1,9.9651504E-1,-1.4820132E-1,-1.1769688E0,-6.873653E-1,-1.1330584E0,-8.31812E-1,-1.281599E0,-1.2761234E-2,-6.528531E-1,-8.0802757E-1,-1.05519764E-1,-7.074601E-2,7.0783406E-1,-8.133858E-1,-1.350023E0,-6.967714E-1,-7.401855E-2,3.8697946E-1,-2.6515377E-1,-9.417182E-1,-3.5517576E-1,-1.1832356E-1,5.625246E-1,-5.5187684E-2,-8.121501E-1,2.0948265E-1,7.298096E-1,-7.7360946E-1,1.843679E-2,8.9973694E-1,3.0429086E-1,1.0433321E0,5.2197284E-1,-1.0641295E-1,-1.401965E-1,-8.747427E-2,-1.4597766E-2,-1.1812013E-1,-6.032287E-2,-1.01162314E-1,-4.2033117E-2,-2.2656327E-2,-1.310947E-1,-5.4570656E-2,3.137931E-2,-9.074009E-2,-3.3154003E-2,-1.0382249E-1,-5.0596025E-2,4.7958296E-2,-3.404879E-2,2.014435E-2,-4.5206413E-2,8.233262E-2,3.0506186E-3,-9.2152484E-2,2.2180168E-2,-1.5351236E-1,-1.0318346E-1,-5.2782517E-2,-1.0857272E-1,1.1275268E-2,-7.654983E-2,-5.5684566E-2,6.0279656E-2,-3.492878E-2,3.921115E-2,-2.8056487E-2,-1.05357744E-1,-1.2299663E-2,-1.2114785E-1,1.5774611E-2,-5.7989385E-2,3.6239758E-2,8.382227E-2,1.1520812E-2,-7.050996E-2,-1.0284541E-1,-3.4624662E-2,-1.8421253E-3,5.8059227E-2,8.719764E-2,3.845775E-2,-9.949999E-2,-2.870639E-2,-6.1495926E-2,1.7596668E-2,4.0157456E-2,1.0007651E-1,-4.6767566E-2,4.4218507E-2,5.156168E-2,1.0814231E-1,2.365696E-2,7.958194E-2],"categories":[],"categories_nodes":[],"categories_segments":[],"categories_sizes":[],"default_left":[0,0,0,0,0,0,0,0,0,0,0,0,0,0,0,0,0,0,0,0,0,0,0,0,0,0,0,0,0,0,0,0,0,0,0,0,0,0,0,0,0,0,0,0,0,0,0,0,0,0,0,0,0,0,0,0,0,0,0,0,0,0,0,0,0,0,0,0,0,0,0,0,0,0,0,0,0,0,0,0,0,0,0,0,0,0,0,0,0,0,0,0,0,0,0,0,0,0,0,0,0,0,0,0,0,0,0,0,0,0,0,0,0,0,0,0,0,0,0,0,0,0,0,0,0],"id":5,"left_children":[1,3,5,7,9,11,13,15,17,19,21,23,25,27,29,31,33,35,37,39,41,43,45,47,49,51,53,55,57,59,61,-1,63,65,67,69,71,73,75,77,79,81,83,85,87,89,91,93,95,97,99,101,103,105,107,109,111,113,115,117,119,121,123,-1,-1,-1,-1,-1,-1,-1,-1,-1,-1,-1,-1,-1,-1,-1,-1,-1,-1,-1,-1,-1,-1,-1,-1,-1,-1,-1,-1,-1,-1,-1,-1,-1,-1,-1,-1,-1,-1,-1,-1,-1,-1,-1,-1,-1,-1,-1,-1,-1,-1,-1,-1,-1,-1,-1,-1,-1,-1,-1,-1,-1,-1],"loss_changes":[1.2189684E3,1.7503778E2,4.1787964E2,2.7573303E1,5.076376E1,1.1750632E2,1.17453064E2,1.2413391E1,1.5961807E1,4.1078194E1,1.3963142E1,3.7355545E1,5.282013E1,9.059609E1,3.204608E1,5.701782E0,8.424744E0,5.418625E0,9.488375E0,2.0986752E1,2.6874458E1,4.1333847E0,5.9501038E0,9.066553E0,1.7006866E1,3.6417126E1,1.9779697E1,2.841278E1,2.5439165E1,2.2004784E1,1.666278E1,0E0,7.039856E0,8.900398E0,1.7947083E0,6.950302E0,1.1292572E0,5.9731765E0,6.401413E0,5.2766685E0,1.2320814E1,1.2101726E1,5.614479E0,4.1641006E0,7.197418E-1,2.1088428E0,3.4444337E0,5.6337533E0,6.763921E0,1.3755783E1,1.3794895E1,1.445505E1,1.4166954E1,9.967881E0,5.3736687E0,1.2735638E1,1.7371918E1,6.217022E0,1.2519908E1,5.484543E0,1.4748955E1,1.3593079E1,5.404007E0,0E0,0E0,0E0,0E0,0E0,0E0,0E0,0E0,0E0,0E0,0E0,0E0,0E0,0E0,0E0,0E0,0E0,0E0,0E0,0E0,0E0,0E0,0E0,0E0,0E0,0E0,0E0,0E0,0E0,0E0,0E0,0E0,0E0,0E0,0E0,0E0,0E0,0E0,0E0,0E0,0E0,0E0,0E0,0E0,0E0,0E0,0E0,0E0,0E0,0E0,0E0,0E0,0E0,0E0,0E0,0E0,0E0,0E0,0E0,0E0,0E0,0E0],"parents":[2147483647,0,0,1,1,2,2,3,3,4,4,5,5,6,6,7,7,8,8,9,9,10,10,11,11,12,12,13,13,14,14,15,15,16,16,17,17,18,18,19,19,20,20,21,21,22,22,23,23,24,24,25,25,26,26,27,27,28,28,29,29,30,30,32,32,33,33,34,34,35,35,36,36,37,37,38,38,39,39,40,40,41,41,42,42,43,43,44,44,45,45,46,46,47,47,48,48,49,49,50,50,51,51,52,52,53,53,54,54,55,55,56,56,57,57,58,58,59,59,60,60,61,61,62,62],"right_children":[2,4,6,8,10,12,14,16,18,20,22,24,26,28,30,32,34,36,38,40,42,44,46,48,50,52,54,56,58,60,62,-1,64,66,68,70,72,74,76,78,80,82,84,86,88,90,92,94,96,98,100,102,104,106,108,110,112,114,116,118,120,122,124,-1,-1,-1,-1,-1,-1,-1,-1,-1,-1,-1,-1,-1,-1,-1,-1,-1,-1,-1,-1,-1,-1,-1,-1,-1,-1,-1,-1,-1,-1,-1,-1,-1,-1,-1,-1,-1,-1,-1,-1,-1,-1,-1,-1,-1,-1,-1,-1,-1,-1,-1,-1,-1,-1,-1,-1,-1,-1,-1,-1,-1,-1],"split_conditions":[3E0,4E0,3E0,3E0,3E1,4E0,4E0,2E0,2E0,8E0,5E0,2.5E1,3E1,3E1,1E0,3E0,2.6E1,3E1,2.4E1,2E0,2E0,3.3E1,2E0,2E0,2E0,6E0,4E0,6E0,4E0,2.5E1,3.3E1,-1.4820132E-1,3E1,1E1,1.2E1,2E0,1E0,6E0,9E0,8.17E0,3E0,4E0,2.8E1,1.2E1,2E0,3.4E1,9.37E0,4E0,1.2E1,2E0,3.3E1,4E0,2E0,3.4E1,1E1,2E0,2.6E1,1E1,3E0,4E0,3E0,2E0,9E0,-1.0641295E-1,-1.401965E-1,-8.747427E-2,-1.4597766E-2,-1.1812013E-1,-6.032287E-2,-1.01162314E-1,-4.2033117E-2,-2.2656327E-2,-1.310947E-1,-5.4570656E-2,3.137931E-2,-9.074009E-2,-3.3154003E-2,-1.0382249E-1,-5.0596025E-2,4.7958296E-2,-3.404879E-2,2.014435E-2,-4.5206413E-2,8.233262E-2,3.0506186E-3,-9.2152484E-2,2.2180168E-2,-1.5351236E-1,-1.0318346E-1,-5.2782517E-2,-1.0857272E-1,1.1275268E-2,-7.654983E-2,-5.5684566E-2,6.0279656E-2,-3.492878E-2,3.921115E-2,-2.8056487E-2,-1.05357744E-1,-1.2299663E-2,-1.2114785E-1,1.5774611E-2,-5.7989385E-2,3.6239758E-2,8.382227E-2,1.1520812E-2,-7.050996E-2,-1.0284541E-1,-3.4624662E-2,-1.8421253E-3,5.8059227E-2,8.719764E-2,3.845775E-2,-9.949999E-2,-2.870639E-2,-6.1495926E-2,1.7596668E-2,4.0157456E-2,1.0007651E-1,-4.6767566E-2,4.4218507E-2,5.156168E-2,1.0814231E-1,2.365696E-2,7.958194E-2],"split_indices":[4,14,14,14,1,4,4,10,4,13,14,1,1,1,10,13,1,1,1,4,10,1,10,7,10,13,7,13,14,1,1,0,1,13,13,10,11,13,13,6,7,7,1,13,4,1,6,13,13,7,1,7,10,1,13,10,1,13,13,13,13,13,13,0,0,0,0,0,0,0,0,0,0,0,0,0,0,0,0,0,0,0,0,0,0,0,0,0,0,0,0,0,0,0,0,0,0,0,0,0,0,0,0,0,0,0,0,0,0,0,0,0,0,0,0,0,0,0,0,0,0,0,0,0,0],"split_type":[0,0,0,0,0,0,0,0,0,0,0,0,0,0,0,0,0,0,0,0,0,0,0,0,0,0,0,0,0,0,0,0,0,0,0,0,0,0,0,0,0,0,0,0,0,0,0,0,0,0,0,0,0,0,0,0,0,0,0,0,0,0,0,0,0,0,0,0,0,0,0,0,0,0,0,0,0,0,0,0,0,0,0,0,0,0,0,0,0,0,0,0,0,0,0,0,0,0,0,0,0,0,0,0,0,0,0,0,0,0,0,0,0,0,0,0,0,0,0,0,0,0,0,0,0],"sum_hessian":[4.0072063E3,1.3710104E3,2.6361958E3,8.7802496E2,4.9298547E2,9.191059E2,1.7170898E3,6.209943E2,2.5703064E2,3.5568372E2,1.3730176E2,4.0198138E2,5.171245E2,6.919933E2,1.0250967E3,4.3570383E2,1.8529047E2,1.4374792E2,1.13282715E2,1.6987025E2,1.8581346E2,7.248693E1,6.481483E1,1.4385016E2,2.5813123E2,3.7299228E2,1.4413222E2,5.0923294E2,1.827603E2,2.5157079E2,7.735259E2,1.00655624E2,3.3504822E2,8.7996E1,9.729446E1,9.8684135E1,4.506379E1,3.2337646E1,8.094507E1,8.243935E1,8.74309E1,1.147199E2,7.109357E1,3.4372112E1,3.811482E1,3.9812817E1,2.5002014E1,2.501009E1,1.18840065E2,1.8899638E2,6.913484E1,1.1172131E2,2.61271E2,8.82762E1,5.5856014E1,1.4945334E2,3.5977963E2,5.9368176E1,1.2339213E2,1.1596018E2,1.3561061E2,7.0297375E2,7.0552086E1,2.2695575E2,1.0809247E2,6.491337E1,2.3082636E1,8.806323E1,9.231225E0,6.765945E1,3.1024687E1,1.4556085E0,4.360818E1,1.20312395E1,2.0306406E1,4.4147156E1,3.6797916E1,4.540237E1,3.7036976E1,2.4752567E1,6.2678337E1,6.721368E1,4.7506226E1,6.0553032E1,1.0540535E1,3.1220514E1,3.1515973E0,2.1678911E1,1.6435907E1,2.9399801E1,1.0413015E1,2.0343971E1,4.658042E0,4.3604627E0,2.0649628E1,1.0576949E2,1.3070579E1,2.7856468E1,1.6113992E2,5.5287693E1,1.3847149E1,7.03203E1,4.1401016E1,1.5272417E2,1.0854681E2,7.059114E1,1.7685059E1,3.7321434E1,1.8534578E1,9.31803E1,5.627304E1,2.5375668E2,1.06022934E2,4.008395E1,1.9284225E1,2.3997845E1,9.939429E1,2.0390575E1,9.55696E1,2.0190048E1,1.1542056E2,4.8303986E1,6.546698E2,3.5459755E1,3.509233E1],"tree_param":{"num_deleted":"0","num_feature":"16","num_nodes":"125","size_leaf_vector":"1"}},{"base_weights":[6.926628E-3,-7.0163167E-1,3.7262636E-1,-1.069599E0,-4.0390316E-1,3.342416E-2,7.6320136E-1,-9.776271E-1,-1.2564601E0,-7.0480967E-1,-1.0261264E-1,-3.5214955E-1,3.229172E-1,8.7617034E-1,3.821897E-1,-1.1065468E0,-7.9890585E-1,-1.327694E-1,-1.0564774E0,-8.742334E-1,-3.5584995E-1,3.8690245E-1,-3.2888725E-1,-1.5502848E-1,-8.0652684E-1,4.9666533E-1,-1.4858899E-1,5.732689E-1,9.74158E-1,1.6191186E-1,8.700372E-1,-1.1795315E0,-9.0716916E-1,-5.8231986E-1,-1.0026392E0,-1.0779577E0,-1.3518467E-2,-9.9455774E-1,-5.5671334E-1,-9.501511E-2,-8.2314336E-1,1.2701644E-1,7.4452937E-1,-5.5124706E-1,1.0205129E-1,-3.4858042E-1,2.2196202E-1,-5.2308005E-1,-9.508839E-1,3.1789312E-1,7.4798554E-1,4.6694404E-1,-3.0208558E-1,7.9870695E-1,1.8674129E-1,8.0243284E-1,1.079599E0,-3.2128662E-1,3.6188436E-1,9.56357E-1,2.6507002E-1,-1.23798706E-1,-1.01886116E-1,-4.0346667E-2,-1.017674E-1,-3.3490036E-2,-8.331646E-2,-2.7942235E-2,-1.0478418E-1,-5.863188E-2,-1.14351965E-1,-6.6850826E-2,-1.07185595E-1,2.7219695E-3,-7.589998E-2,-2.1972023E-2,1.5246893E-2,-6.857021E-2,-1.4026713E-1,-3.6990126E-3,4.623181E-2,5.003951E-2,1.0590448E-1,-1.1140223E-2,-7.059495E-2,-5.2723486E-2,3.329447E-2,-5.12183E-2,3.5757243E-3,-1.89547E-2,3.741127E-2,-1.5610828E-2,-8.71479E-2,-1.07584074E-1,-5.6449737E-2,8.0830984E-2,1.6754678E-2,8.784028E-2,4.6720736E-2,1.349255E-3,8.117531E-2,-5.5977967E-2,1.9347746E-2,2.7712066E-2,8.7210625E-2,-6.019626E-3,5.9353907E-2,6.1993547E-2,9.533637E-2,9.651691E-2,1.1593636E-1,1.601675E-2,-6.1057717E-2,5.796033E-2,3.3158896E-5,1.0446711E-1,7.0816815E-2,-4.9835216E-2,5.1677395E-2],"categories":[],"categories_nodes":[],"categories_segments":[],"categories_sizes":[],"default_left":[0,0,0,0,0,0,0,0,0,0,0,0,0,0,0,0,0,0,0,0,0,0,0,0,0,0,0,0,0,0,0,0,0,0,0,0,0,0,0,0,0,0,0,0,0,0,0,0,0,0,0,0,0,0,0,0,0,0,0,0,0,0,0,0,0,0,0,0,0,0,0,0,0,0,0,0,0,0,0,0,0,0,0,0,0,0,0,0,0,0,0,0,0,0,0,0,0,0,0,0,0,0,0,0,0,0,0,0,0,0,0,0,0,0,0,0,0,0,0],"id":6,"left_children":[1,3,5,7,9,11,13,15,17,19,21,23,25,27,29,31,33,-1,35,37,39,41,43,45,47,49,51,53,55,57,59,61,63,65,67,69,-1,71,73,75,77,79,81,83,85,87,89,91,93,95,97,99,101,103,105,107,109,111,113,115,117,-1,-1,-1,-1,-1,-1,-1,-1,-1,-1,-1,-1,-1,-1,-1,-1,-1,-1,-1,-1,-1,-1,-1,-1,-1,-1,-1,-1,-1,-1,-1,-1,-1,-1,-1,-1,-1,-1,-1,-1,-1,-1,-1,-1,-1,-1,-1,-1,-1,-1,-1,-1,-1,-1,-1,-1,-1,-1],"loss_changes":[1.01885913E3,1.4621082E2,3.435656E2,9.049683E0,6.715158E1,1.5516153E2,5.1548523E1,8.454132E0,1.3574829E0,2.1612106E1,4.129634E1,5.3271095E1,6.5112785E1,2.7013672E1,2.9673141E1,2.3182983E0,7.069191E0,0E0,9.582443E-1,8.956909E0,1.4899113E1,1.0868393E1,2.4464928E1,3.0506008E1,6.8734436E0,2.5837097E1,2.0411648E1,1.9848335E1,1.1817017E1,1.8703642E1,4.241356E0,3.0830383E-1,3.3035889E0,5.0865326E0,2.5835495E0,1.0820389E0,0E0,3.801117E0,8.369606E0,2.5022311E0,2.5339222E0,3.840012E0,3.265995E0,1.1365318E1,1.2895427E1,1.7368855E1,8.966791E0,7.919718E0,5.0962067E0,2.4997337E1,8.396027E0,6.745943E0,2.211531E1,5.295952E0,8.659295E0,6.856201E0,2.8158264E0,8.014032E0,1.0746748E1,9.0283966E-1,2.5886612E0,0E0,0E0,0E0,0E0,0E0,0E0,0E0,0E0,0E0,0E0,0E0,0E0,0E0,0E0,0E0,0E0,0E0,0E0,0E0,0E0,0E0,0E0,0E0,0E0,0E0,0E0,0E0,0E0,0E0,0E0,0E0,0E0,0E0,0E0,0E0,0E0,0E0,0E0,0E0,0E0,0E0,0E0,0E0,0E0,0E0,0E0,0E0,0E0,0E0,0E0,0E0,0E0,0E0,0E0,0E0,0E0,0E0,0E0],"parents":[2147483647,0,0,1,1,2,2,3,3,4,4,5,5,6,6,7,7,8,8,9,9,10,10,11,11,12,12,13,13,14,14,15,15,16,16,18,18,19,19,20,20,21,21,22,22,23,23,24,24,25,25,26,26,27,27,28,28,29,29,30,30,31,31,32,32,33,33,34,34,35,35,37,37,38,38,39,39,40,40,41,41,42,42,43,43,44,44,45,45,46,46,47,47,48,48,49,49,50,50,51,51,52,52,53,53,54,54,55,55,56,56,57,57,58,58,59,59,60,60],"right_children":[2,4,6,8,10,12,14,16,18,20,22,24,26,28,30,32,34,-1,36,38,40,42,44,46,48,50,52,54,56,58,60,62,64,66,68,70,-1,72,74,76,78,80,82,84,86,88,90,92,94,96,98,100,102,104,106,108,110,112,114,116,118,-1,-1,-1,-1,-1,-1,-1,-1,-1,-1,-1,-1,-1,-1,-1,-1,-1,-1,-1,-1,-1,-1,-1,-1,-1,-1,-1,-1,-1,-1,-1,-1,-1,-1,-1,-1,-1,-1,-1,-1,-1,-1,-1,-1,-1,-1,-1,-1,-1,-1,-1,-1,-1,-1,-1,-1,-1,-1],"split_conditions":[3E0,3E0,4E0,3E1,2E0,4E0,3E1,2E0,2E0,2E0,2.4E1,3E1,3E1,1E0,5E0,2E0,4E0,-1.327694E-1,2.6E1,5E0,2.9E1,2E0,5E0,3E0,3E0,2E0,2E0,2.5E1,4E0,1E0,3.4E1,2.6E1,2.1E1,2.5E1,1.9E1,2E0,-1.3518467E-2,2E0,2.2E1,5E0,5E0,5E0,5E0,3E0,1E0,2E0,1E0,3.3E1,2E0,2E0,4E0,1E0,2E0,4E0,5E0,5E0,5E0,3E0,4E0,4E0,1E0,-1.23798706E-1,-1.01886116E-1,-4.0346667E-2,-1.017674E-1,-3.3490036E-2,-8.331646E-2,-2.7942235E-2,-1.0478418E-1,-5.863188E-2,-1.14351965E-1,-6.6850826E-2,-1.07185595E-1,2.7219695E-3,-7.589998E-2,-2.1972023E-2,1.5246893E-2,-6.857021E-2,-1.4026713E-1,-3.6990126E-3,4.623181E-2,5.003951E-2,1.0590448E-1,-1.1140223E-2,-7.059495E-2,-5.2723486E-2,3.329447E-2,-5.12183E-2,3.5757243E-3,-1.89547E-2,3.741127E-2,-1.5610828E-2,-8.71479E-2,-1.07584074E-1,-5.6449737E-2,8.0830984E-2,1.6754678E-2,8.784028E-2,4.6720736E-2,1.349255E-3,8.117531E-2,-5.5977967E-2,1.9347746E-2,2.7712066E-2,8.7210625E-2,-6.019626E-3,5.9353907E-2,6.1993547E-2,9.533637E-2,9.651691E-2,1.1593636E-1,1.601675E-2,-6.1057717E-2,5.796033E-2,3.3158896E-5,1.0446711E-1,7.0816815E-2,-4.9835216E-2,5.1677395E-2],"split_indices":[4,14,14,1,4,4,1,4,10,10,1,1,1,10,4,10,7,0,11,14,1,10,14,14,7,10,7,1,4,10,1,1,1,1,1,7,0,7,1,14,7,14,14,7,10,10,10,1,10,7,7,0,10,11,4,14,14,7,7,7,10,0,0,0,0,0,0,0,0,0,0,0,0,0,0,0,0,0,0,0,0,0,0,0,0,0,0,0,0,0,0,0,0,0,0,0,0,0,0,0,0,0,0,0,0,0,0,0,0,0,0,0,0,0,0,0,0,0,0],"split_type":[0,0,0,0,0,0,0,0,0,0,0,0,0,0,0,0,0,0,0,0,0,0,0,0,0,0,0,0,0,0,0,0,0,0,0,0,0,0,0,0,0,0,0,0,0,0,0,0,0,0,0,0,0,0,0,0,0,0,0,0,0,0,0,0,0,0,0,0,0,0,0,0,0,0,0,0,0,0,0,0,0,0,0,0,0,0,0,0,0,0,0,0,0,0,0,0,0,0,0,0,0,0,0,0,0,0,0,0,0,0,0,0,0,0,0,0,0,0,0],"sum_hessian":[3.9299949E3,1.3375392E3,2.5924558E3,5.970469E2,7.404923E2,1.3880571E3,1.2043987E3,4.042896E2,1.9275725E2,3.6981216E2,3.7068015E2,5.951563E2,7.929008E2,9.27961E2,2.7643768E2,2.3185251E2,1.724371E2,1.3797235E2,5.4784897E1,2.4793282E2,1.2187936E2,1.1695457E2,2.5372557E2,4.1601776E2,1.7913852E2,5.793568E2,2.1354399E2,2.2849203E2,6.9946893E2,1.913633E2,8.507439E1,1.6612445E2,6.572806E1,8.5452255E1,8.698485E1,5.337049E1,1.4144032E0,1.7825194E2,6.968087E1,7.89912E1,4.288815E1,6.851799E1,4.8436577E1,1.6718214E2,8.654343E1,2.749369E2,1.410809E2,6.200821E1,1.171303E2,3.3986487E2,2.3949199E2,4.2215313E1,1.7132869E2,1.436458E2,8.484623E1,2.693712E2,4.3009775E2,5.5836796E1,1.3552649E2,7.3942986E1,1.1131404E1,1.1689148E2,4.923297E1,1.2662234E1,5.3065823E1,4.419541E1,4.125684E1,5.539379E0,8.1445465E1,7.449648E0,4.5920845E1,3.6009518E1,1.4224243E2,1.815086E1,5.153001E1,5.2599133E1,2.6392075E1,3.6431286E1,6.4568624E0,4.66095E1,2.190849E1,2.8728132E1,1.9708445E1,4.3948715E1,1.2323343E2,2.288588E1,6.3657543E1,1.926136E2,8.232327E1,3.8016125E1,1.0306477E2,3.09044E1,3.110381E1,8.7158905E1,2.99714E1,7.871783E1,2.6114703E2,1.6207983E2,7.741215E1,1.8683779E1,2.3531534E1,1.1263079E2,5.8697895E1,1.8309723E1,1.25336075E2,5.3327175E1,3.1519054E1,1.2424651E2,1.4512468E2,1.8204167E2,2.4805608E2,2.112526E1,3.4711536E1,8.421251E1,5.1313984E1,5.216995E1,2.1773035E1,2.5170958E0,8.614308E0],"tree_param":{"num_deleted":"0","num_feature":"16","num_nodes":"119","size_leaf_vector":"1"}},{"base_weights":[-1.0423352E-3,-6.595492E-1,3.437309E-1,-1.02143E0,-3.710031E-1,-1.2074183E-1,5.980913E-1,-1.1185167E0,-7.851138E-1,-6.460825E-1,-1.0723891E-1,-3.0759153E-1,3.6946306E-1,3.3635044E-1,7.792409E-1,-1.3296898E-1,-1.0510335E0,-9.373045E-1,-5.8169854E-1,-8.5373074E-1,-4.1919345E-1,-3.4991875E-1,3.3031794E-1,-7.293782E-1,-1.2464243E-1,-6.9855034E-2,5.216057E-1,1.4143454E-1,6.681041E-1,4.5150208E-1,8.853168E-1,-1.1550341E0,-8.9657307E-1,-1.1006787E0,-7.475262E-1,-7.931344E-1,-3.287246E-1,-1.0001074E0,-5.520625E-1,-5.999412E-1,-2.2593727E-2,-5.2055347E-1,4.155905E-2,8.165891E-3,6.269492E-1,-1.5563264E-1,-8.2974935E-1,-3.1951272E-1,2.6880446E-1,1.9707116E-1,-4.7848207E-1,7.7293985E-2,6.807943E-1,-2.7229062E-1,3.0314186E-1,9.441742E-2,7.588666E-1,-1.2113446E-1,5.8881253E-1,7.449364E-1,1.0466653E0,-1.2900002E-1,-1.065524E-1,-1.0200777E-1,-7.126903E-2,-1.2774925E-1,-8.708568E-2,-8.453642E-2,9.486782E-4,-2.6578188E-2,-9.085361E-2,1.0818361E-2,-4.279646E-2,-1.1888105E-1,-8.781322E-2,-4.221921E-2,-1.2655209E-1,4.7977692E-3,-6.908804E-2,-5.264603E-2,2.0315439E-2,-7.826587E-2,-2.8690344E-2,3.0000944E-2,-2.9408991E-2,9.4897365E-3,-5.214683E-2,7.180478E-2,-1.9842809E-2,-4.5458402E-2,2.0279277E-2,-1.1323396E-1,-6.777536E-2,1.9867962E-2,-4.3164186E-2,3.9834768E-2,-1.7465314E-2,-7.92051E-3,8.172654E-2,-1.0189359E-2,-7.40976E-2,2.0044122E-2,-4.4305276E-2,8.022498E-2,4.1816875E-2,-5.8845516E-2,5.13172E-3,-5.145143E-3,4.6033327E-2,6.8720005E-2,-2.9632797E-2,6.0349572E-2,9.817576E-2,6.889528E-2,-3.0185759E-2,4.162147E-2,8.940651E-2,5.9909858E-2,9.6568696E-2,1.1128986E-1,6.044671E-2],"categories":[],"categories_nodes":[],"categories_segments":[],"categories_sizes":[],"default_left":[0,0,0,0,0,0,0,0,0,0,0,0,0,0,0,0,0,0,0,0,0,0,0,0,0,0,0,0,0,0,0,0,0,0,0,0,0,0,0,0,0,0,0,0,0,0,0,0,0,0,0,0,0,0,0,0,0,0,0,0,0,0,0,0,0,0,0,0,0,0,0,0,0,0,0,0,0,0,0,0,0,0,0,0,0,0,0,0,0,0,0,0,0,0,0,0,0,0,0,0,0,0,0,0,0,0,0,0,0,0,0,0,0,0,0,0,0,0,0,0,0],"id":7,"left_children":[1,3,5,7,9,11,13,15,17,19,21,23,25,27,29,-1,31,33,35,37,39,41,43,45,47,49,51,53,55,57,59,61,63,65,67,69,71,73,75,77,79,81,83,85,87,89,91,93,95,97,99,101,103,105,107,109,111,113,115,117,119,-1,-1,-1,-1,-1,-1,-1,-1,-1,-1,-1,-1,-1,-1,-1,-1,-1,-1,-1,-1,-1,-1,-1,-1,-1,-1,-1,-1,-1,-1,-1,-1,-1,-1,-1,-1,-1,-1,-1,-1,-1,-1,-1,-1,-1,-1,-1,-1,-1,-1,-1,-1,-1,-1,-1,-1,-1,-1,-1,-1],"loss_changes":[8.7410876E2,1.3777509E2,2.9862415E2,1.2575195E1,5.345481E1,8.209319E1,7.716547E1,4.4918213E0,4.8447723E0,1.664534E1,4.0231762E1,4.9956093E1,1.657631E1,4.3210037E1,3.3125E1,0E0,4.0720825E0,2.2143936E0,3.865837E0,7.726303E0,1.2490042E1,1.6287123E1,1.2923653E1,1.115818E1,3.4861145E1,7.1334596E0,1.2956081E1,2.8389523E1,1.281945E1,1.8772034E1,1.5697876E1,8.7916565E-1,2.2800903E0,9.4057465E-1,3.5952435E0,2.2729855E0,1.6433063E0,1.833107E0,5.347662E0,7.0907173E0,6.436488E0,1.01652565E1,6.58065E0,3.0753014E0,5.437704E0,3.3511357E0,6.894394E0,1.7737038E1,8.731343E0,6.8747907E0,2.4740343E0,3.2698464E0,3.9796028E0,1.2249299E1,1.7006266E1,8.301439E0,6.805176E0,7.0637813E0,9.743881E0,1.2057159E1,9.167999E0,0E0,0E0,0E0,0E0,0E0,0E0,0E0,0E0,0E0,0E0,0E0,0E0,0E0,0E0,0E0,0E0,0E0,0E0,0E0,0E0,0E0,0E0,0E0,0E0,0E0,0E0,0E0,0E0,0E0,0E0,0E0,0E0,0E0,0E0,0E0,0E0,0E0,0E0,0E0,0E0,0E0,0E0,0E0,0E0,0E0,0E0,0E0,0E0,0E0,0E0,0E0,0E0,0E0,0E0,0E0,0E0,0E0,0E0,0E0,0E0],"parents":[2147483647,0,0,1,1,2,2,3,3,4,4,5,5,6,6,7,7,8,8,9,9,10,10,11,11,12,12,13,13,14,14,16,16,17,17,18,18,19,19,20,20,21,21,22,22,23,23,24,24,25,25,26,26,27,27,28,28,29,29,30,30,31,31,32,32,33,33,34,34,35,35,36,36,37,37,38,38,39,39,40,40,41,41,42,42,43,43,44,44,45,45,46,46,47,47,48,48,49,49,50,50,51,51,52,52,53,53,54,54,55,55,56,56,57,57,58,58,59,59,60,60],"right_children":[2,4,6,8,10,12,14,16,18,20,22,24,26,28,30,-1,32,34,36,38,40,42,44,46,48,50,52,54,56,58,60,62,64,66,68,70,72,74,76,78,80,82,84,86,88,90,92,94,96,98,100,102,104,106,108,110,112,114,116,118,120,-1,-1,-1,-1,-1,-1,-1,-1,-1,-1,-1,-1,-1,-1,-1,-1,-1,-1,-1,-1,-1,-1,-1,-1,-1,-1,-1,-1,-1,-1,-1,-1,-1,-1,-1,-1,-1,-1,-1,-1,-1,-1,-1,-1,-1,-1,-1,-1,-1,-1,-1,-1,-1,-1,-1,-1,-1,-1,-1,-1],"split_conditions":[3E0,3E0,3E0,2E0,8E0,5E0,4E0,3E0,8E0,2E0,2E0,5E0,5E0,5E0,1E0,-1.3296898E-1,2E0,2E0,1E0,2E0,5E0,5E0,2E0,2E0,2E0,4E0,1E0,1E0,3E0,4E0,9E0,9E0,8.28E0,1E0,7E0,2E0,6.36E0,7.1E0,5E0,2E0,1E0,1E0,4E0,9.43E0,2.3E1,4E0,1E0,2E0,3E0,8.83E0,7.08E0,5E0,4E0,1E0,6E0,3E0,2E0,2E0,5E0,5E0,5E0,-1.2900002E-1,-1.065524E-1,-1.0200777E-1,-7.126903E-2,-1.2774925E-1,-8.708568E-2,-8.453642E-2,9.486782E-4,-2.6578188E-2,-9.085361E-2,1.0818361E-2,-4.279646E-2,-1.1888105E-1,-8.781322E-2,-4.221921E-2,-1.2655209E-1,4.7977692E-3,-6.908804E-2,-5.264603E-2,2.0315439E-2,-7.826587E-2,-2.8690344E-2,3.0000944E-2,-2.9408991E-2,9.4897365E-3,-5.214683E-2,7.180478E-2,-1.9842809E-2,-4.5458402E-2,2.0279277E-2,-1.1323396E-1,-6.777536E-2,1.9867962E-2,-4.3164186E-2,3.9834768E-2,-1.7465314E-2,-7.92051E-3,8.172654E-2,-1.0189359E-2,-7.40976E-2,2.0044122E-2,-4.4305276E-2,8.022498E-2,4.1816875E-2,-5.8845516E-2,5.13172E-3,-5.145143E-3,4.6033327E-2,6.8720005E-2,-2.9632797E-2,6.0349572E-2,9.817576E-2,6.889528E-2,-3.0185759E-2,4.162147E-2,8.940651E-2,5.9909858E-2,9.6568696E-2,1.1128986E-1,6.044671E-2],"split_indices":[4,14,14,10,13,4,4,13,13,4,10,13,13,14,10,0,4,14,15,10,14,14,4,7,10,7,10,10,13,13,13,11,6,15,13,7,6,6,7,7,10,10,7,6,11,4,10,7,9,6,6,7,7,15,13,7,10,7,14,14,7,0,0,0,0,0,0,0,0,0,0,0,0,0,0,0,0,0,0,0,0,0,0,0,0,0,0,0,0,0,0,0,0,0,0,0,0,0,0,0,0,0,0,0,0,0,0,0,0,0,0,0,0,0,0,0,0,0,0,0,0],"split_type":[0,0,0,0,0,0,0,0,0,0,0,0,0,0,0,0,0,0,0,0,0,0,0,0,0,0,0,0,0,0,0,0,0,0,0,0,0,0,0,0,0,0,0,0,0,0,0,0,0,0,0,0,0,0,0,0,0,0,0,0,0,0,0,0,0,0,0,0,0,0,0,0,0,0,0,0,0,0,0,0,0,0,0,0,0,0,0,0,0,0,0,0,0,0,0,0,0,0,0,0,0,0,0,0,0,0,0,0,0,0,0,0,0,0,0,0,0,0,0,0,0],"sum_hessian":[3.8480984E3,1.3220701E3,2.5260283E3,5.8537744E2,7.3669257E2,8.9402563E2,1.6320027E3,4.122698E2,1.7310765E2,3.5990182E2,3.7679074E2,6.475672E2,2.4645842E2,6.6868463E2,9.63318E2,9.531128E1,3.1695853E2,9.6958015E1,7.6149635E1,1.864764E2,1.7342543E2,2.4249649E2,1.3429427E2,1.9500317E2,4.5256403E2,6.3536118E1,1.829223E2,4.2210864E2,2.46576E2,2.3683476E2,7.264832E2,1.8554823E2,1.3141031E2,4.952429E1,4.7433727E1,4.031722E1,3.5832417E1,1.2399553E2,6.2480865E1,1.1877966E2,5.4645767E1,1.6865471E2,7.384178E1,6.487032E1,6.9423935E1,2.941433E1,1.6558885E2,3.0278537E2,1.4977864E2,3.874473E1,2.4791382E1,4.8642277E1,1.3428003E2,1.18428276E2,3.0368036E2,3.3960518E1,2.126155E2,4.5828854E1,1.910059E2,3.9148816E2,3.3499506E2,6.863954E1,1.1690868E2,7.589088E1,5.551943E1,2.5413658E1,2.411063E1,4.190157E1,5.5321555E0,7.831699E0,3.248552E1,6.6158276E0,2.921659E1,4.524794E1,7.874759E1,5.4205605E1,8.275259E0,1.4677642E1,1.0410202E2,1.6495647E1,3.815012E1,7.837974E1,9.027496E1,4.177846E1,3.2063316E1,5.644746E1,8.42286E0,6.2640247E1,6.7836924E0,1.5891471E1,1.3522859E1,5.320985E1,1.12379E2,5.3725777E1,2.490596E2,1.1599562E2,3.378302E1,2.740776E1,1.1336973E1,1.0752879E1,1.4038504E1,3.9830605E1,8.811669E0,9.041252E1,4.38675E1,5.9489082E1,5.8939198E1,9.3480095E1,2.1020027E2,1.319074E1,2.0769777E1,1.2746845E2,8.514704E1,7.8462086E0,3.7982647E1,1.2352508E2,6.748082E1,2.3798102E2,1.5350714E2,2.900362E2,4.4958855E1],"tree_param":{"num_deleted":"0","num_feature":"16","num_nodes":"121","size_leaf_vector":"1"}},{"base_weights":[1.2174155E-2,-8.959064E-1,5.931922E-1,-1.0677931E0,-4.3948677E-1,2.9917665E-2,8.0446684E-1,-1.1711133E0,-8.2129824E-1,-5.590473E-2,-6.7638236E-1,1.8681325E-1,-4.1386372E-1,5.1660424E-1,9.181888E-1,-1.1009414E0,-1.3017732E0,-1.0448469E0,-5.3487897E-1,2.8056887E-1,-3.214388E-1,-1.0410913E0,-4.8576248E-1,-7.631363E-2,4.2052722E-1,-6.464075E-1,-1.7716075E-1,7.7313626E-1,2.4958636E-1,1.0649931E0,7.9029214E-1,-1.2573856E0,-1.0039777E0,-1.3075433E0,-5.52176E-4,-1.2466723E0,-8.988598E-1,-5.683201E-2,-8.432641E-1,-1.0314326E0,3.7538472E-1,-5.350336E-1,3.203214E-2,-1.1310129E0,-4.863997E-1,8.875614E-2,-6.376578E-1,-2.9262412E-1,2.963757E-1,7.6916707E-1,2.5796875E-1,-8.287226E-1,-3.9260894E-1,-4.673198E-1,9.3761615E-2,6.0384595E-1,1.1456573E0,-3.7638202E-1,5.046694E-1,9.608129E-1,1.1441672E0,8.649776E-1,2.723257E-1,-1.3409123E-1,-9.949712E-2,-1.1074219E-1,-9.023703E-2,-1.2203039E-1,-1.3965355E-1,-1.2800503E-1,3.2343117E-3,-7.886886E-2,-1.3894093E-1,-5.2982282E-2,2.057792E-2,-6.889074E-2,-1.21594325E-1,-3.685942E-2,-1.2654085E-1,9.217009E-2,1.662269E-2,-9.205937E-2,-7.4209454E-3,-3.230525E-2,3.9436556E-2,-5.7218563E-2,-1.21112004E-1,-6.4959355E-2,2.0231036E-2,-8.862611E-2,1.615442E-2,-1.0871959E-1,-4.1421507E-2,-6.2085755E-2,-1.0637815E-2,-2.6188696E-2,4.7536545E-2,1.0082882E-1,3.9843466E-2,-2.2068894E-2,3.8398053E-2,-6.0638268E-2,-1.0910993E-1,-6.489831E-2,2.0586861E-2,-2.3639807E-2,-9.142932E-2,-2.8063292E-2,2.982763E-2,8.457743E-2,5.345894E-2,1.1554428E-1,3.9077546E-2,4.3548353E-2,-5.3691365E-2,5.8962632E-2,-3.5181735E-2,9.822536E-2,4.2237513E-2,9.736833E-2,1.1931731E-1,6.673768E-2,9.8560676E-2,-2.1473903E-3,8.347618E-2],"categories":[],"categories_nodes":[],"categories_segments":[],"categories_sizes":[],"default_left":[0,0,0,0,0,0,0,0,0,0,0,0,0,0,0,0,0,0,0,0,0,0,0,0,0,0,0,0,0,0,0,0,0,0,0,0,0,0,0,0,0,0,0,0,0,0,0,0,0,0,0,0,0,0,0,0,0,0,0,0,0,0,0,0,0,0,0,0,0,0,0,0,0,0,0,0,0,0,0,0,0,0,0,0,0,0,0,0,0,0,0,0,0,0,0,0,0,0,0,0,0,0,0,0,0,0,0,0,0,0,0,0,0,0,0,0,0,0,0,0,0,0,0,0,0],"id":8,"left_children":[1,3,5,7,9,11,13,15,17,19,21,23,25,27,29,31,33,35,37,39,41,43,45,47,49,51,53,55,57,59,61,63,65,67,-1,69,71,73,75,77,79,81,83,85,87,89,91,93,95,97,99,101,103,105,107,109,111,113,115,117,119,121,123,-1,-1,-1,-1,-1,-1,-1,-1,-1,-1,-1,-1,-1,-1,-1,-1,-1,-1,-1,-1,-1,-1,-1,-1,-1,-1,-1,-1,-1,-1,-1,-1,-1,-1,-1,-1,-1,-1,-1,-1,-1,-1,-1,-1,-1,-1,-1,-1,-1,-1,-1,-1,-1,-1,-1,-1,-1,-1,-1,-1,-1,-1],"loss_changes":[2.0000011E3,1.1556616E2,2.7507074E2,2.638379E1,3.688463E1,4.4052513E1,5.4556396E1,5.4823E0,1.9961014E1,1.4048028E1,1.6951149E1,2.8769444E1,8.983025E0,3.257174E1,2.175885E1,6.279724E0,1.9228516E0,4.151886E0,2.096479E1,9.025576E0,6.644677E0,3.7054062E0,1.4611374E1,1.7875982E1,1.3836208E1,3.5148773E0,6.5908346E0,1.4662842E1,3.7849014E1,3.4995117E0,2.4799347E1,2.7488708E0,2.2790527E0,2.9037476E-1,0E0,3.137535E0,4.709717E0,7.1847215E0,4.1422844E0,3.0079842E-1,7.330575E0,9.663716E0,4.502871E0,2.559784E0,1.6662755E0,2.6805506E0,1.2811752E1,8.500327E0,8.271851E0,6.5344543E0,1.0362302E1,2.1034584E0,5.7486033E0,3.9518766E0,3.4452987E0,2.3881187E0,1.02211E-1,9.207866E0,1.2431393E1,2.4365845E0,1.4411621E0,1.2813171E1,1.3735352E1,0E0,0E0,0E0,0E0,0E0,0E0,0E0,0E0,0E0,0E0,0E0,0E0,0E0,0E0,0E0,0E0,0E0,0E0,0E0,0E0,0E0,0E0,0E0,0E0,0E0,0E0,0E0,0E0,0E0,0E0,0E0,0E0,0E0,0E0,0E0,0E0,0E0,0E0,0E0,0E0,0E0,0E0,0E0,0E0,0E0,0E0,0E0,0E0,0E0,0E0,0E0,0E0,0E0,0E0,0E0,0E0,0E0,0E0,0E0,0E0,0E0,0E0],"parents":[2147483647,0,0,1,1,2,2,3,3,4,4,5,5,6,6,7,7,8,8,9,9,10,10,11,11,12,12,13,13,14,14,15,15,16,16,17,17,18,18,19,19,20,20,21,21,22,22,23,23,24,24,25,25,26,26,27,27,28,28,29,29,30,30,31,31,32,32,33,33,35,35,36,36,37,37,38,38,39,39,40,40,41,41,42,42,43,43,44,44,45,45,46,46,47,47,48,48,49,49,50,50,51,51,52,52,53,53,54,54,55,55,56,56,57,57,58,58,59,59,60,60,61,61,62,62],"right_children":[2,4,6,8,10,12,14,16,18,20,22,24,26,28,30,32,34,36,38,40,42,44,46,48,50,52,54,56,58,60,62,64,66,68,-1,70,72,74,76,78,80,82,84,86,88,90,92,94,96,98,100,102,104,106,108,110,112,114,116,118,120,122,124,-1,-1,-1,-1,-1,-1,-1,-1,-1,-1,-1,-1,-1,-1,-1,-1,-1,-1,-1,-1,-1,-1,-1,-1,-1,-1,-1,-1,-1,-1,-1,-1,-1,-1,-1,-1,-1,-1,-1,-1,-1,-1,-1,-1,-1,-1,-1,-1,-1,-1,-1,-1,-1,-1,-1,-1,-1,-1,-1,-1,-1,-1],"split_conditions":[1E0,4E0,3E0,2E0,2.5E1,3E1,6E0,3E1,8E0,3E0,1E0,2E0,8E0,2.6E1,2.5E1,6E0,3.8E1,3E0,2.5E1,1E0,2E0,2.2E1,2E0,2E0,3E0,8E0,2E0,5E0,1E0,1E1,5E0,8.95E0,1E0,4E0,-5.52176E-4,9.95E0,3.3E1,2E0,3.3E1,1E0,2E1,1E0,7.8E0,2.6E1,9.24E0,1E0,6E0,7.1E0,5E0,2.5E1,4E0,3.3E1,2E0,3.4E1,1E1,2E0,9.96E0,2E0,3.4E1,2.3E1,1E0,4E0,5E0,-1.3409123E-1,-9.949712E-2,-1.1074219E-1,-9.023703E-2,-1.2203039E-1,-1.3965355E-1,-1.2800503E-1,3.2343117E-3,-7.886886E-2,-1.3894093E-1,-5.2982282E-2,2.057792E-2,-6.889074E-2,-1.21594325E-1,-3.685942E-2,-1.2654085E-1,9.217009E-2,1.662269E-2,-9.205937E-2,-7.4209454E-3,-3.230525E-2,3.9436556E-2,-5.7218563E-2,-1.21112004E-1,-6.4959355E-2,2.0231036E-2,-8.862611E-2,1.615442E-2,-1.0871959E-1,-4.1421507E-2,-6.2085755E-2,-1.0637815E-2,-2.6188696E-2,4.7536545E-2,1.0082882E-1,3.9843466E-2,-2.2068894E-2,3.8398053E-2,-6.0638268E-2,-1.0910993E-1,-6.489831E-2,2.0586861E-2,-2.3639807E-2,-9.142932E-2,-2.8063292E-2,2.982763E-2,8.457743E-2,5.345894E-2,1.1554428E-1,3.9077546E-2,4.3548353E-2,-5.3691365E-2,5.8962632E-2,-3.5181735E-2,9.822536E-2,4.2237513E-2,9.736833E-2,1.1931731E-1,6.673768E-2,9.8560676E-2,-2.1473903E-3,8.347618E-2],"split_indices":[12,4,4,10,1,1,13,1,13,7,10,4,13,1,1,13,1,13,1,13,10,11,7,10,7,6,4,4,10,13,7,6,10,7,0,6,1,4,1,10,1,15,6,1,6,13,13,6,13,1,13,1,10,1,13,7,6,7,1,11,10,4,4,0,0,0,0,0,0,0,0,0,0,0,0,0,0,0,0,0,0,0,0,0,0,0,0,0,0,0,0,0,0,0,0,0,0,0,0,0,0,0,0,0,0,0,0,0,0,0,0,0,0,0,0,0,0,0,0,0,0,0,0,0,0],"split_type":[0,0,0,0,0,0,0,0,0,0,0,0,0,0,0,0,0,0,0,0,0,0,0,0,0,0,0,0,0,0,0,0,0,0,0,0,0,0,0,0,0,0,0,0,0,0,0,0,0,0,0,0,0,0,0,0,0,0,0,0,0,0,0,0,0,0,0,0,0,0,0,0,0,0,0,0,0,0,0,0,0,0,0,0,0,0,0,0,0,0,0,0,0,0,0,0,0,0,0,0,0,0,0,0,0,0,0,0,0,0,0,0,0,0,0,0,0,0,0,0,0,0,0,0,0],"sum_hessian":[3.788665E3,1.4780538E3,2.310611E3,1.0727273E3,4.053265E2,6.305794E2,1.6800317E3,7.5324725E2,3.1948E2,1.5522374E2,2.5010275E2,4.6630118E2,1.6427824E2,4.773262E2,1.2027056E3,4.9619086E2,2.570564E2,1.7794612E2,1.415339E2,6.844125E1,8.678249E1,8.4317764E1,1.6578499E2,2.196649E2,2.4663628E2,8.199406E1,8.2284195E1,2.4247643E2,2.3484978E2,5.5655035E2,6.4615515E2,1.8528267E2,3.1090817E2,2.5590855E2,1.1478415E0,7.152459E1,1.06421524E2,5.5964355E1,8.556954E1,3.9469938E0,6.4494255E1,5.3774235E1,3.300826E1,7.1661644E1,1.2656126E1,3.4753056E1,1.3103194E2,1.3912878E2,8.053612E1,7.724244E1,1.6939383E2,4.6398567E1,3.5595486E1,3.9381508E1,4.2902687E1,1.685161E2,7.396032E1,6.785632E1,1.6699347E2,2.459956E2,3.1055475E2,5.641418E2,8.20134E1,1.3742906E2,4.785361E1,1.4915639E2,1.617518E2,1.3665633E2,1.1925223E2,6.970473E1,1.8198683E0,8.90335E1,1.7388025E1,1.961612E1,3.634824E1,6.2522438E1,2.3047106E1,1.701658E0,2.2453358E0,1.6912476E1,4.758178E1,2.8734818E1,2.5039417E1,1.672564E1,1.628262E1,1.0005564E1,6.165608E1,1.0277589E1,2.378537E0,1.637837E0,3.311522E1,4.2221687E1,8.881024E1,4.9521057E1,8.960773E1,1.9440079E1,6.109604E1,4.5910564E1,3.1331875E1,3.5144722E1,1.342491E2,2.690781E1,1.9490757E1,2.4861147E1,1.073434E1,2.6974466E1,1.24070425E1,1.5025E1,2.7877687E1,3.500919E1,1.3350691E2,7.249E1,1.4703169E0,1.0919542E1,5.693678E1,1.5220726E2,1.4786209E1,2.3578242E2,1.0213171E1,7.399743E1,2.3655733E2,2.1632137E2,3.478204E2,5.4503986E1,2.7509413E1],"tree_param":{"num_deleted":"0","num_feature":"16","num_nodes":"125","size_leaf_vector":"1"}},{"base_weights":[-4.3078656E-3,-8.4282446E-1,5.346694E-1,-9.6073765E-1,-1.3015851E-1,1.6241623E-2,7.32459E-1,-1.1190175E0,-7.869978E-1,-1.8537007E-2,-6.6462404E-1,-2.3102722E-1,2.4202278E-1,6.041696E-1,9.924151E-1,-1.2717855E-1,-1.0542259E0,-5.299901E-1,-9.3679726E-1,2.8019035E-1,-1.2945226E-1,-8.355144E-1,2.3924616E-1,-4.5527253E-1,-1.1896301E-2,2.2088377E-2,4.2842612E-1,7.283377E-2,6.919037E-1,8.007315E-1,1.0458368E0,-1.1323205E0,-9.388796E-1,-9.309391E-1,-4.3256396E-1,-1.1036669E0,-7.478269E-1,6.392075E-2,6.1686647E-1,-3.073997E-1,4.23771E-2,9.254246E-2,-9.2371523E-1,8.8543445E-1,-5.223511E-1,-1.2756118E0,-3.6946902E-1,-4.8452157E-1,1.1296711E-1,4.1681582E-1,-1.9330789E-1,2.3984647E-1,6.300998E-1,-5.3111464E-1,2.5478655E-1,8.133883E-1,4.8189482E-1,1.120187E-1,6.8976206E-1,1.0806777E0,8.0660385E-1,-1.2358719E-1,-1.0466584E-1,-1.02343194E-1,-6.7817375E-2,-1.1370683E-1,-4.8410404E-2,-1.4698359E-2,-7.554137E-2,-1.211059E-1,-6.670045E-2,-1.8264465E-3,-7.851853E-2,-4.1831803E-2,4.8286594E-2,-1.8059462E-2,8.489003E-2,-3.486393E-2,7.580888E-2,-3.399282E-2,1.5697975E-2,-4.5585085E-2,6.718872E-2,-1.22930184E-1,-6.617487E-2,1.1112025E-1,3.7215244E-2,-9.731626E-2,2.2456883E-2,-4.8856955E-2,-1.3589884E-1,-2.8820992E-2,-5.9712972E-2,-6.381374E-2,7.283988E-3,2.6198372E-2,-3.6105093E-2,6.8079084E-2,1.6859228E-2,-4.4650372E-2,-3.1159972E-3,2.647674E-4,4.8333544E-2,7.455524E-2,1.048255E-2,-2.1279799E-2,-1.4157407E-1,6.5549865E-2,1.5765563E-2,6.591843E-2,9.402145E-2,5.655834E-2,1.4042887E-2,8.673549E-2,5.659941E-2,1.0843658E-1,4.5363795E-2,9.252526E-2,-2.7093852E-2],"categories":[],"categories_nodes":[],"categories_segments":[],"categories_sizes":[],"default_left":[0,0,0,0,0,0,0,0,0,0,0,0,0,0,0,0,0,0,0,0,0,0,0,0,0,0,0,0,0,0,0,0,0,0,0,0,0,0,0,0,0,0,0,0,0,0,0,0,0,0,0,0,0,0,0,0,0,0,0,0,0,0,0,0,0,0,0,0,0,0,0,0,0,0,0,0,0,0,0,0,0,0,0,0,0,0,0,0,0,0,0,0,0,0,0,0,0,0,0,0,0,0,0,0,0,0,0,0,0,0,0,0,0,0,0,0,0,0,0],"id":9,"left_children":[1,3,5,7,9,11,13,15,17,19,21,23,25,27,29,-1,31,33,35,37,39,41,43,45,47,49,51,53,55,57,59,61,63,65,67,69,71,73,75,77,79,81,83,85,87,89,91,93,95,97,99,101,103,105,107,109,111,-1,113,115,117,-1,-1,-1,-1,-1,-1,-1,-1,-1,-1,-1,-1,-1,-1,-1,-1,-1,-1,-1,-1,-1,-1,-1,-1,-1,-1,-1,-1,-1,-1,-1,-1,-1,-1,-1,-1,-1,-1,-1,-1,-1,-1,-1,-1,-1,-1,-1,-1,-1,-1,-1,-1,-1,-1,-1,-1,-1,-1],"loss_changes":[1.6628517E3,1.2085126E2,2.2964844E2,3.3083984E1,1.2249407E1,3.4644073E1,5.3466064E1,5.032898E0,2.2301605E1,5.7038636E0,5.6803093E0,1.4550141E1,1.3286936E1,5.0670227E1,4.632202E0,0E0,3.062622E0,8.205078E0,1.0930542E1,3.3558803E0,3.8480346E0,2.5461884E0,3.621479E0,9.831423E0,8.956404E0,1.2820179E1,6.5231285E0,1.7202843E1,2.3430115E1,3.5055695E0,2.5828247E0,1.085968E0,3.5108795E0,3.3372345E0,1.6406288E1,8.377792E0,4.835144E0,6.1635337E0,3.5066953E0,2.9769864E0,2.8875165E0,1.4239733E0,1.3914719E0,3.1870842E-2,1.4224184E0,2.1878815E-1,2.3053226E0,2.7616372E0,8.580096E0,3.3721285E0,3.9939942E0,5.329821E0,5.02734E0,9.915647E0,4.568474E0,1.0920624E1,9.769394E0,0E0,1.5350685E0,3.3789062E-1,7.490658E0,0E0,0E0,0E0,0E0,0E0,0E0,0E0,0E0,0E0,0E0,0E0,0E0,0E0,0E0,0E0,0E0,0E0,0E0,0E0,0E0,0E0,0E0,0E0,0E0,0E0,0E0,0E0,0E0,0E0,0E0,0E0,0E0,0E0,0E0,0E0,0E0,0E0,0E0,0E0,0E0,0E0,0E0,0E0,0E0,0E0,0E0,0E0,0E0,0E0,0E0,0E0,0E0,0E0,0E0,0E0,0E0,0E0,0E0],"parents":[2147483647,0,0,1,1,2,2,3,3,4,4,5,5,6,6,7,7,8,8,9,9,10,10,11,11,12,12,13,13,14,14,16,16,17,17,18,18,19,19,20,20,21,21,22,22,23,23,24,24,25,25,26,26,27,27,28,28,29,29,30,30,31,31,32,32,33,33,34,34,35,35,36,36,37,37,38,38,39,39,40,40,41,41,42,42,43,43,44,44,45,45,46,46,47,47,48,48,49,49,50,50,51,51,52,52,53,53,54,54,55,55,56,56,58,58,59,59,60,60],"right_children":[2,4,6,8,10,12,14,16,18,20,22,24,26,28,30,-1,32,34,36,38,40,42,44,46,48,50,52,54,56,58,60,62,64,66,68,70,72,74,76,78,80,82,84,86,88,90,92,94,96,98,100,102,104,106,108,110,112,-1,114,116,118,-1,-1,-1,-1,-1,-1,-1,-1,-1,-1,-1,-1,-1,-1,-1,-1,-1,-1,-1,-1,-1,-1,-1,-1,-1,-1,-1,-1,-1,-1,-1,-1,-1,-1,-1,-1,-1,-1,-1,-1,-1,-1,-1,-1,-1,-1,-1,-1,-1,-1,-1,-1,-1,-1,-1,-1,-1,-1],"split_conditions":[1E0,5E0,3E0,3E0,5E0,8E0,5E0,4E0,3E0,2E0,9.11E0,2E0,2E0,3E0,5E0,-1.2717855E-1,2E0,4E0,8E0,8.17E0,1E0,5.47E0,9.59E0,5.6E0,2E0,3E0,7.9E0,6.17E0,4E0,2E0,5E0,7.47E0,1.1E1,4E0,1.2E1,8.93E0,1E0,1E0,1E0,2.6E1,5E0,5.39E0,1.1E1,8E0,9.88E0,5.11E0,3E0,5E0,3E0,1.1E1,7.21E0,1E0,3E0,3E0,2E0,9E0,3E0,1.120187E-1,7.22E0,9.97E0,2.2E1,-1.2358719E-1,-1.0466584E-1,-1.02343194E-1,-6.7817375E-2,-1.1370683E-1,-4.8410404E-2,-1.4698359E-2,-7.554137E-2,-1.211059E-1,-6.670045E-2,-1.8264465E-3,-7.851853E-2,-4.1831803E-2,4.8286594E-2,-1.8059462E-2,8.489003E-2,-3.486393E-2,7.580888E-2,-3.399282E-2,1.5697975E-2,-4.5585085E-2,6.718872E-2,-1.22930184E-1,-6.617487E-2,1.1112025E-1,3.7215244E-2,-9.731626E-2,2.2456883E-2,-4.8856955E-2,-1.3589884E-1,-2.8820992E-2,-5.9712972E-2,-6.381374E-2,7.283988E-3,2.6198372E-2,-3.6105093E-2,6.8079084E-2,1.6859228E-2,-4.4650372E-2,-3.1159972E-3,2.647674E-4,4.8333544E-2,7.455524E-2,1.048255E-2,-2.1279799E-2,-1.4157407E-1,6.5549865E-2,1.5765563E-2,6.591843E-2,9.402145E-2,5.655834E-2,1.4042887E-2,8.673549E-2,5.659941E-2,1.0843658E-1,4.5363795E-2,9.252526E-2,-2.7093852E-2],"split_indices":[12,4,4,4,7,13,4,13,7,7,6,4,4,13,13,0,4,11,13,6,15,6,6,6,13,7,6,6,7,7,7,6,13,4,11,6,11,0,9,11,11,6,11,13,6,6,9,7,9,11,6,15,9,9,7,13,9,0,6,6,11,0,0,0,0,0,0,0,0,0,0,0,0,0,0,0,0,0,0,0,0,0,0,0,0,0,0,0,0,0,0,0,0,0,0,0,0,0,0,0,0,0,0,0,0,0,0,0,0,0,0,0,0,0,0,0,0,0,0],"split_type":[0,0,0,0,0,0,0,0,0,0,0,0,0,0,0,0,0,0,0,0,0,0,0,0,0,0,0,0,0,0,0,0,0,0,0,0,0,0,0,0,0,0,0,0,0,0,0,0,0,0,0,0,0,0,0,0,0,0,0,0,0,0,0,0,0,0,0,0,0,0,0,0,0,0,0,0,0,0,0,0,0,0,0,0,0,0,0,0,0,0,0,0,0,0,0,0,0,0,0,0,0,0,0,0,0,0,0,0,0,0,0,0,0,0,0,0,0,0,0],"sum_hessian":[3.6773552E3,1.4386322E3,2.238723E3,1.234098E3,2.0453418E2,6.1854144E2,1.6201815E3,6.42934E2,5.91164E2,1.7005367E2,3.448051E1,2.9521143E2,3.2333005E2,1.0870447E3,5.331369E2,1.8592462E2,4.5700943E2,2.1935657E2,3.718074E2,4.563068E1,1.2442299E2,2.90616E1,5.41891E0,1.4537047E2,1.4984096E2,1.488375E2,1.7449254E2,1.5431447E2,9.3273016E2,1.1968439E2,4.1345248E2,2.672515E2,1.8975792E2,4.120901E1,1.7814755E2,1.9487947E2,1.7692793E2,2.8507965E1,1.7122713E1,6.0735737E1,6.3687252E1,2.5179799E0,2.654362E1,2.8436074E0,2.5753024E0,1.245222E1,1.3291824E2,3.0711872E1,1.1912908E2,5.221502E1,9.6622475E1,9.130498E1,8.318757E1,3.528279E1,1.19031685E2,5.8908636E2,3.4364383E2,2.8511572E1,9.117282E1,3.578234E2,5.5629097E1,1.1491322E2,1.5233827E2,1.4107782E2,4.8680096E1,2.714298E1,1.4066029E1,9.53022E1,8.284535E1,1.5498839E2,3.989109E1,8.691091E0,1.6823685E2,1.3253567E1,1.5254398E1,3.909186E0,1.3213528E1,5.9120285E1,1.6154529E0,1.4234833E1,4.945242E1,1.4030495E0,1.1149303E0,1.0547393E1,1.5996226E1,1.1658913E0,1.6777161E0,1.4170972E0,1.1582052E0,1.8498802E0,1.060234E1,9.962499E1,3.329325E1,2.3962563E1,6.7493086E0,9.097627E1,2.8152815E1,2.4460102E1,2.7754917E1,3.703626E1,5.9586216E1,4.6761936E1,4.454304E1,6.78542E1,1.5333367E1,2.6858719E1,8.424072E0,2.2101929E1,9.6929756E1,2.6864584E2,3.2044052E2,2.754729E2,6.817093E1,3.4976963E1,5.6195854E1,3.55006E2,2.8173685E0,5.023863E1,5.390466E0],"tree_param":{"num_deleted":"0","num_feature":"16","num_nodes":"119","size_leaf_vector":"1"}},{"base_weights":[-5.9316924E-4,-5.1405334E-1,2.66769E-1,-7.3456395E-1,-1.4638835E-1,-2.5868839E-2,6.2197834E-1,-8.409248E-1,-4.9716172E-1,4.1663274E-2,-5.076912E-1,3.0813298E-1,-2.4658622E-1,6.8796986E-1,5.8255326E-2,-7.4985313E-1,-1.0369283E0,-8.036949E-1,-3.564032E-1,-1.6346623E-1,3.5992074E-1,-3.207509E-1,-7.942169E-1,1.5185209E-1,6.6479176E-1,-4.2046353E-1,2.0935589E-1,3.9976898E-1,7.906087E-1,-2.456699E-1,3.1969303E-1,-1.0399222E0,-6.642089E-1,-1.113087E0,-8.284775E-1,1.97895E-2,-8.339888E-1,-1.8790226E-1,-7.553303E-1,-3.936811E-1,5.0029535E-2,1.3230796E-1,5.4007506E-1,-5.8360416E-1,-7.974136E-2,-1.0403452E-1,-6.256151E-1,-2.2410888E-2,4.427855E-1,7.3960644E-1,3.8471568E-1,-7.8474057E-1,-2.5946695E-1,-1.3009402E-1,3.4444675E-1,2.2066239E-1,7.772178E-1,6.079228E-1,9.1336334E-1,1.1035557E-1,-3.481888E-1,-1.451235E-1,3.9965618E-1,-1.0842725E-1,-5.7059865E-2,-7.507213E-2,-4.632719E-2,-9.141686E-2,-1.1610093E-1,-1.057441E-1,-5.6859225E-2,-8.879077E-2,-4.0216144E-2,-4.3312684E-2,1.1643159E-2,-6.1228115E-2,-1.1297649E-1,-6.610292E-2,-9.065664E-3,1.5288246E-2,-3.2261033E-2,-7.111486E-2,2.2099359E-2,3.757856E-2,1.0638305E-1,-6.601323E-2,6.812229E-2,-1.0740234E-1,1.961806E-3,-1.1275541E-1,-4.7076307E-2,-3.0251516E-2,1.1443348E-2,2.6161656E-2,7.398757E-2,1.11305214E-1,6.762561E-2,4.9587082E-2,-9.6636675E-2,-1.0426704E-1,-6.1847307E-2,-1.187668E-2,-7.231198E-2,-3.2067157E-2,2.5293449E-2,4.3209326E-2,-5.890475E-2,4.7708478E-2,-5.8116363E-3,1.0036031E-1,5.2658148E-2,6.7418315E-2,2.4819745E-2,7.973569E-2,9.996108E-2,-8.08054E-2,-1.23240845E-2,-9.3892224E-2,4.6704102E-2,2.0944735E-2,6.111042E-2],"categories":[],"categories_nodes":[],"categories_segments":[],"categories_sizes":[],"default_left":[0,0,0,0,0,0,0,0,0,0,0,0,0,0,0,0,0,0,0,0,0,0,0,0,0,0,0,0,0,0,0,0,0,0,0,0,0,0,0,0,0,0,0,0,0,0,0,0,0,0,0,0,0,0,0,0,0,0,0,0,0,0,0,0,0,0,0,0,0,0,0,0,0,0,0,0,0,0,0,0,0,0,0,0,0,0,0,0,0,0,0,0,0,0,0,0,0,0,0,0,0,0,0,0,0,0,0,0,0,0,0,0,0,0,0,0,0,0,0,0,0],"id":10,"left_children":[1,3,5,7,9,11,13,15,17,19,21,23,25,27,29,31,33,35,37,39,41,43,45,47,49,51,53,55,57,59,61,63,65,67,69,-1,71,73,75,77,79,81,83,85,87,-1,89,91,93,95,97,99,101,103,105,107,109,111,113,-1,115,117,119,-1,-1,-1,-1,-1,-1,-1,-1,-1,-1,-1,-1,-1,-1,-1,-1,-1,-1,-1,-1,-1,-1,-1,-1,-1,-1,-1,-1,-1,-1,-1,-1,-1,-1,-1,-1,-1,-1,-1,-1,-1,-1,-1,-1,-1,-1,-1,-1,-1,-1,-1,-1,-1,-1,-1,-1,-1,-1],"loss_changes":[4.9066617E2,9.9114624E1,2.4433054E2,1.8892609E1,3.12804E1,9.514846E1,3.9456726E1,8.624298E0,1.0028629E1,1.9873186E1,8.185013E0,2.8525513E1,6.1691948E1,2.7796173E1,9.006068E0,8.332779E0,1.6890106E0,2.423565E0,1.0991779E1,9.124418E0,4.819105E0,6.1004095E0,1.9027023E0,1.818045E1,2.9880295E0,3.2807053E1,9.912913E0,1.6837418E1,1.5137268E1,7.649099E0,2.3191042E0,1.0679169E0,4.5751343E0,5.9249878E-2,2.2504272E0,0E0,1.3296318E0,8.840197E0,1.9250202E0,7.1700583E0,3.767021E0,4.1977687E0,5.3007946E0,4.92686E0,5.1362057E0,0E0,2.5026493E0,8.662677E0,7.035223E0,2.137619E0,5.7367554E0,6.732483E0,2.5476334E1,4.6059437E0,1.2871433E1,1.2325099E1,4.043148E0,6.607216E0,3.3706055E0,0E0,5.0285153E0,5.1340714E0,1.9703035E0,0E0,0E0,0E0,0E0,0E0,0E0,0E0,0E0,0E0,0E0,0E0,0E0,0E0,0E0,0E0,0E0,0E0,0E0,0E0,0E0,0E0,0E0,0E0,0E0,0E0,0E0,0E0,0E0,0E0,0E0,0E0,0E0,0E0,0E0,0E0,0E0,0E0,0E0,0E0,0E0,0E0,0E0,0E0,0E0,0E0,0E0,0E0,0E0,0E0,0E0,0E0,0E0,0E0,0E0,0E0,0E0,0E0,0E0],"parents":[2147483647,0,0,1,1,2,2,3,3,4,4,5,5,6,6,7,7,8,8,9,9,10,10,11,11,12,12,13,13,14,14,15,15,16,16,17,17,18,18,19,19,20,20,21,21,22,22,23,23,24,24,25,25,26,26,27,27,28,28,29,29,30,30,31,31,32,32,33,33,34,34,36,36,37,37,38,38,39,39,40,40,41,41,42,42,43,43,44,44,46,46,47,47,48,48,49,49,50,50,51,51,52,52,53,53,54,54,55,55,56,56,57,57,58,58,60,60,61,61,62,62],"right_children":[2,4,6,8,10,12,14,16,18,20,22,24,26,28,30,32,34,36,38,40,42,44,46,48,50,52,54,56,58,60,62,64,66,68,70,-1,72,74,76,78,80,82,84,86,88,-1,90,92,94,96,98,100,102,104,106,108,110,112,114,-1,116,118,120,-1,-1,-1,-1,-1,-1,-1,-1,-1,-1,-1,-1,-1,-1,-1,-1,-1,-1,-1,-1,-1,-1,-1,-1,-1,-1,-1,-1,-1,-1,-1,-1,-1,-1,-1,-1,-1,-1,-1,-1,-1,-1,-1,-1,-1,-1,-1,-1,-1,-1,-1,-1,-1,-1,-1,-1,-1,-1],"split_conditions":[3E0,4E0,4E0,3E0,2.9E1,2.5E1,3.3E1,3E1,1E0,2E0,3.3E1,5E0,5E0,1E0,4E0,4E0,2E0,1.9E1,3E1,2E0,2E0,2E0,7.13E0,2E0,3E0,1E0,1E0,5E0,4E0,1E0,5.6E0,2.9E1,2E0,1E0,2E0,1.97895E-2,2.2E1,2E0,3.4E1,5E0,3E0,1E0,9.24E0,9.96E0,5.57E0,-1.0403452E-1,1E0,2E0,3E0,5.75E0,2.2E1,2E0,3.3E1,3E0,3.4E1,2.5E1,2.5E1,3E1,5E0,1.1035557E-1,1E0,2E0,5E0,-1.0842725E-1,-5.7059865E-2,-7.507213E-2,-4.632719E-2,-9.141686E-2,-1.1610093E-1,-1.057441E-1,-5.6859225E-2,-8.879077E-2,-4.0216144E-2,-4.3312684E-2,1.1643159E-2,-6.1228115E-2,-1.1297649E-1,-6.610292E-2,-9.065664E-3,1.5288246E-2,-3.2261033E-2,-7.111486E-2,2.2099359E-2,3.757856E-2,1.0638305E-1,-6.601323E-2,6.812229E-2,-1.0740234E-1,1.961806E-3,-1.1275541E-1,-4.7076307E-2,-3.0251516E-2,1.1443348E-2,2.6161656E-2,7.398757E-2,1.11305214E-1,6.762561E-2,4.9587082E-2,-9.6636675E-2,-1.0426704E-1,-6.1847307E-2,-1.187668E-2,-7.231198E-2,-3.2067157E-2,2.5293449E-2,4.3209326E-2,-5.890475E-2,4.7708478E-2,-5.8116363E-3,1.0036031E-1,5.2658148E-2,6.7418315E-2,2.4819745E-2,7.973569E-2,9.996108E-2,-8.08054E-2,-1.23240845E-2,-9.3892224E-2,4.6704102E-2,2.0944735E-2,6.111042E-2],"split_indices":[4,14,14,14,1,1,1,1,10,10,1,4,4,10,4,11,10,1,1,4,4,4,6,10,9,10,10,4,4,11,6,1,10,9,4,0,11,4,1,14,9,11,6,6,6,0,9,14,14,6,11,14,1,14,1,1,1,1,14,0,10,9,4,0,0,0,0,0,0,0,0,0,0,0,0,0,0,0,0,0,0,0,0,0,0,0,0,0,0,0,0,0,0,0,0,0,0,0,0,0,0,0,0,0,0,0,0,0,0,0,0,0,0,0,0,0,0,0,0,0,0],"split_type":[0,0,0,0,0,0,0,0,0,0,0,0,0,0,0,0,0,0,0,0,0,0,0,0,0,0,0,0,0,0,0,0,0,0,0,0,0,0,0,0,0,0,0,0,0,0,0,0,0,0,0,0,0,0,0,0,0,0,0,0,0,0,0,0,0,0,0,0,0,0,0,0,0,0,0,0,0,0,0,0,0,0,0,0,0,0,0,0,0,0,0,0,0,0,0,0,0,0,0,0,0,0,0,0,0,0,0,0,0,0,0,0,0,0,0,0,0,0,0,0,0],"sum_hessian":[3.5722058E3,1.2228466E3,2.3493591E3,7.6377014E2,4.5907648E2,1.288643E3,1.0607162E3,5.257029E2,2.3806728E2,3.025101E2,1.5656638E2,5.1258093E2,7.76062E2,9.4936017E2,1.1135601E2,3.622238E2,1.6347908E2,7.3435425E1,1.6463185E2,1.8424396E2,1.18266136E2,9.603132E1,6.053506E1,3.574007E2,1.5518022E2,5.6186707E2,2.1419489E2,2.5059798E2,6.987622E2,5.1521645E1,5.983437E1,8.002939E1,2.821944E2,1.1655511E2,4.6923965E1,1.9934809E0,7.144194E1,1.1677769E2,4.7854164E1,8.824472E1,9.5999245E1,5.301707E1,6.524906E1,4.525412E1,5.07772E1,2.2507587E1,3.8027473E1,2.240953E2,1.3330539E2,1.2117176E2,3.4008453E1,1.7102504E2,3.9084204E2,6.0986893E1,1.53208E2,1.7102702E2,7.957095E1,2.8322043E2,4.1554178E2,2.9488013E0,4.857284E1,8.662924E0,5.1171444E1,7.192255E1,8.10684E0,1.9535092E2,8.684348E1,2.6525896E1,9.002921E1,2.331455E1,2.3609415E1,6.2572807E1,8.869133E0,6.4434654E1,5.2343033E1,3.653249E1,1.1321675E1,4.625451E1,4.199021E1,7.5696E1,2.0303242E1,4.3763585E0,4.8640713E1,5.097646E1,1.4272606E1,4.312305E1,2.1310675E0,3.721996E0,4.7055202E1,7.484772E0,3.0542702E1,7.315172E1,1.5094359E2,8.39763E1,4.9329086E1,1.5170855E1,1.0600091E2,3.200809E1,2.0003612E0,6.4968605E1,1.0605644E2,3.0081335E2,9.0028694E1,4.0833035E1,2.0153858E1,1.4054887E2,1.2659119E1,8.871504E1,8.231199E1,4.022963E1,3.934132E1,2.3842848E2,4.479194E1,1.8156888E2,2.3397289E2,1.5103765E1,3.3469078E1,3.5394788E0,5.123445E0,2.7986567E1,2.318488E1],"tree_param":{"num_deleted":"0","num_feature":"16","num_nodes":"121","size_leaf_vector":"1"}},{"base_weights":[-4.419052E-3,-7.602223E-1,4.92711E-1,-9.1922694E-1,-3.7146926E-1,5.4443724E-2,6.650643E-1,-9.9319416E-1,-4.9617276E-1,-5.371156E-1,3.3310938E-1,-2.1243535E-1,3.9827847E-1,1.5190193E-1,7.597702E-1,-1.0680711E0,-8.0994153E-1,-7.042E-1,-7.0651524E-2,-3.8264027E-1,-8.887206E-1,5.263406E-2,7.428461E-1,-5.6331076E-2,-6.327588E-1,5.9964806E-1,6.758205E-2,4.781328E-1,-3.6632355E-2,8.4868085E-1,4.6077642E-1,-1.1411198E0,-9.704171E-1,-6.1499214E-1,-9.781147E-1,-9.103469E-1,-3.7938127E-1,1.153134E-1,-1.0642815E0,-7.597755E-1,-2.0327292E-1,-1.063555E0,-4.7743317E-1,-8.6028963E-1,1.334986E-1,-6.227606E-2,8.152844E-1,-2.9168507E-1,1.708833E-1,-8.4408945E-1,-3.7796205E-1,1.9225469E-1,7.3169166E-1,-2.1368423E-1,3.1681237E-1,5.659198E-1,1.3092034E-1,-2.0672438E-1,4.0917632E-1,6.1826396E-1,9.257036E-1,3.058389E-1,7.905882E-1,-7.0082776E-2,-1.15651585E-1,-1.0576743E-1,-8.191593E-2,-8.271653E-2,-3.834303E-2,-1.1198069E-1,-7.967244E-2,-9.328804E-2,1.6156053E-2,2.268031E-2,-8.703733E-2,-3.461018E-2,4.9852505E-2,1.0653188E-3,-1.2485444E-1,-5.4718312E-2,-9.505451E-2,-3.483001E-2,4.833069E-3,-8.043502E-2,-1.24976754E-1,-1.1004525E-1,-2.2656573E-2,-1.6477771E-1,-3.0449124E-3,-3.4457903E-2,2.9511644E-2,9.065706E-2,-2.9748352E-3,-4.519811E-2,8.8477274E-4,4.400487E-2,-1.5758254E-2,-2.0251164E-2,-9.409509E-2,-6.4978205E-2,9.840109E-3,-3.0864513E-2,4.1222904E-2,9.5520444E-2,5.908993E-2,-1.2029388E-1,-8.781291E-3,5.759387E-2,-1.5794352E-2,7.16045E-2,2.2280684E-2,-3.8321503E-2,5.1460475E-2,-4.615542E-2,8.656318E-3,-1.1308648E-2,6.437309E-2,3.553279E-2,8.185588E-2,8.5504174E-2,1.0650184E-1,4.1823532E-2,-1.9856399E-2,8.935248E-2,1.1225135E-2],"categories":[],"categories_nodes":[],"categories_segments":[],"categories_sizes":[],"default_left":[0,0,0,0,0,0,0,0,0,0,0,0,0,0,0,0,0,0,0,0,0,0,0,0,0,0,0,0,0,0,0,0,0,0,0,0,0,0,0,0,0,0,0,0,0,0,0,0,0,0,0,0,0,0,0,0,0,0,0,0,0,0,0,0,0,0,0,0,0,0,0,0,0,0,0,0,0,0,0,0,0,0,0,0,0,0,0,0,0,0,0,0,0,0,0,0,0,0,0,0,0,0,0,0,0,0,0,0,0,0,0,0,0,0,0,0,0,0,0,0,0,0,0,0,0],"id":11,"left_children":[1,3,5,7,9,11,13,15,17,19,21,23,25,27,29,31,33,35,37,39,41,43,45,47,49,51,53,55,57,59,61,63,65,67,69,71,73,75,77,79,81,83,85,87,89,-1,91,93,95,97,99,101,103,105,107,109,111,113,115,117,119,121,123,-1,-1,-1,-1,-1,-1,-1,-1,-1,-1,-1,-1,-1,-1,-1,-1,-1,-1,-1,-1,-1,-1,-1,-1,-1,-1,-1,-1,-1,-1,-1,-1,-1,-1,-1,-1,-1,-1,-1,-1,-1,-1,-1,-1,-1,-1,-1,-1,-1,-1,-1,-1,-1,-1,-1,-1,-1,-1,-1,-1,-1,-1],"loss_changes":[1.3182068E3,8.5704285E1,1.598258E2,3.0400879E1,4.753531E1,5.49995E1,7.370233E1,1.0651855E1,1.3132996E1,1.7524193E1,8.907828E0,2.2114477E1,1.7397736E1,1.4649385E1,3.368933E1,3.1208496E0,7.516403E0,6.344841E0,9.363789E0,1.5422127E1,6.656952E0,3.6061447E0,3.6297207E0,1.327212E1,4.5984154E0,8.607883E0,7.094175E0,2.5838528E0,1.1587298E1,1.6943726E1,1.4885563E1,1.4495239E0,2.5695648E0,5.4493256E0,2.4809036E0,1.6097755E0,1.2253149E1,7.7809124E0,1.5943155E0,2.475048E0,5.7607827E0,2.3301468E0,4.679568E0,2.5523727E0,3.5253549E0,0E0,2.372282E0,5.8727036E0,1.1247633E1,2.8612785E0,5.6595993E0,4.6630497E0,3.2894516E0,5.8324347E0,6.678385E0,3.4101925E0,3.9253106E0,8.295945E0,5.2457643E0,1.2889885E1,6.3515015E0,1.1594269E1,6.4624977E0,0E0,0E0,0E0,0E0,0E0,0E0,0E0,0E0,0E0,0E0,0E0,0E0,0E0,0E0,0E0,0E0,0E0,0E0,0E0,0E0,0E0,0E0,0E0,0E0,0E0,0E0,0E0,0E0,0E0,0E0,0E0,0E0,0E0,0E0,0E0,0E0,0E0,0E0,0E0,0E0,0E0,0E0,0E0,0E0,0E0,0E0,0E0,0E0,0E0,0E0,0E0,0E0,0E0,0E0,0E0,0E0,0E0,0E0,0E0,0E0,0E0,0E0],"parents":[2147483647,0,0,1,1,2,2,3,3,4,4,5,5,6,6,7,7,8,8,9,9,10,10,11,11,12,12,13,13,14,14,15,15,16,16,17,17,18,18,19,19,20,20,21,21,22,22,23,23,24,24,25,25,26,26,27,27,28,28,29,29,30,30,31,31,32,32,33,33,34,34,35,35,36,36,37,37,38,38,39,39,40,40,41,41,42,42,43,43,44,44,46,46,47,47,48,48,49,49,50,50,51,51,52,52,53,53,54,54,55,55,56,56,57,57,58,58,59,59,60,60,61,61,62,62],"right_children":[2,4,6,8,10,12,14,16,18,20,22,24,26,28,30,32,34,36,38,40,42,44,46,48,50,52,54,56,58,60,62,64,66,68,70,72,74,76,78,80,82,84,86,88,90,-1,92,94,96,98,100,102,104,106,108,110,112,114,116,118,120,122,124,-1,-1,-1,-1,-1,-1,-1,-1,-1,-1,-1,-1,-1,-1,-1,-1,-1,-1,-1,-1,-1,-1,-1,-1,-1,-1,-1,-1,-1,-1,-1,-1,-1,-1,-1,-1,-1,-1,-1,-1,-1,-1,-1,-1,-1,-1,-1,-1,-1,-1,-1,-1,-1,-1,-1,-1,-1,-1,-1,-1,-1,-1],"split_conditions":[1E0,4E0,3E0,5E0,5E0,4E0,2E0,2E0,2E0,3E1,2E0,3E1,2.8E1,2.5E1,3E1,8.04E0,2.6E1,3E0,3.3E1,1E0,8.69E0,3E0,5.24E0,2E0,3E1,1E0,5E0,3E0,5E0,1E0,5E0,1.9E1,3E0,3E0,1E0,9.97E0,2.5E1,1.1E1,4E0,2.5E1,8.25E0,6.73E0,1E0,5E0,7E0,-6.227606E-2,9.56E0,2E0,2.5E1,4E0,3E0,7.06E0,2.2E1,5.55E0,3.9E1,2.3E1,7.04E0,2E0,1.6E1,4E0,5E0,3E0,3.4E1,-7.0082776E-2,-1.15651585E-1,-1.0576743E-1,-8.191593E-2,-8.271653E-2,-3.834303E-2,-1.1198069E-1,-7.967244E-2,-9.328804E-2,1.6156053E-2,2.268031E-2,-8.703733E-2,-3.461018E-2,4.9852505E-2,1.0653188E-3,-1.2485444E-1,-5.4718312E-2,-9.505451E-2,-3.483001E-2,4.833069E-3,-8.043502E-2,-1.24976754E-1,-1.1004525E-1,-2.2656573E-2,-1.6477771E-1,-3.0449124E-3,-3.4457903E-2,2.9511644E-2,9.065706E-2,-2.9748352E-3,-4.519811E-2,8.8477274E-4,4.400487E-2,-1.5758254E-2,-2.0251164E-2,-9.409509E-2,-6.4978205E-2,9.840109E-3,-3.0864513E-2,4.1222904E-2,9.5520444E-2,5.908993E-2,-1.2029388E-1,-8.781291E-3,5.759387E-2,-1.5794352E-2,7.16045E-2,2.2280684E-2,-3.8321503E-2,5.1460475E-2,-4.615542E-2,8.656318E-3,-1.1308648E-2,6.437309E-2,3.553279E-2,8.185588E-2,8.5504174E-2,1.0650184E-1,4.1823532E-2,-1.9856399E-2,8.935248E-2,1.1225135E-2],"split_indices":[12,4,4,14,14,14,14,10,10,1,10,1,1,1,1,6,1,4,1,10,6,2,6,4,2,10,14,9,4,10,4,1,4,14,15,6,1,11,11,1,6,6,9,4,11,0,6,10,1,2,14,6,1,6,2,1,6,9,2,14,4,9,1,0,0,0,0,0,0,0,0,0,0,0,0,0,0,0,0,0,0,0,0,0,0,0,0,0,0,0,0,0,0,0,0,0,0,0,0,0,0,0,0,0,0,0,0,0,0,0,0,0,0,0,0,0,0,0,0,0,0,0,0,0,0],"split_type":[0,0,0,0,0,0,0,0,0,0,0,0,0,0,0,0,0,0,0,0,0,0,0,0,0,0,0,0,0,0,0,0,0,0,0,0,0,0,0,0,0,0,0,0,0,0,0,0,0,0,0,0,0,0,0,0,0,0,0,0,0,0,0,0,0,0,0,0,0,0,0,0,0,0,0,0,0,0,0,0,0,0,0,0,0,0,0,0,0,0,0,0,0,0,0,0,0,0,0,0,0,0,0,0,0,0,0,0,0,0,0,0,0,0,0,0,0,0,0,0,0,0,0,0,0],"sum_hessian":[3.506368E3,1.391022E3,2.115346E3,9.8626385E2,4.0475815E2,5.9744727E2,1.5178987E3,8.383399E2,1.4792393E2,3.2790533E2,7.685281E1,3.3658078E2,2.608665E2,2.3689453E2,1.2810042E3,5.917308E2,2.4660915E2,9.8912865E1,4.901107E1,2.2926678E2,9.863856E1,4.629272E1,3.0560099E1,2.4625714E2,9.032362E1,1.6163158E2,9.9234924E1,8.620075E1,1.5069379E2,9.8597125E2,2.9503293E2,3.3239893E2,2.5933185E2,1.1636901E2,1.3024014E2,5.9407276E1,3.9505585E1,4.202899E1,6.9820776E0,7.2852425E1,1.5641435E2,6.810279E1,3.0535772E1,2.9825406E0,4.3310177E1,1.1567082E0,2.940339E1,1.20822556E2,1.25434586E2,4.810889E1,4.221473E1,4.0165424E1,1.2146615E2,4.6688137E1,5.2546787E1,6.830185E1,1.7898907E1,1.0946518E2,4.1228603E1,2.492765E2,7.3669476E2,2.0204462E2,9.2988304E1,1.2802244E1,3.1959668E2,1.6065881E2,9.867303E1,5.938458E1,5.6984432E1,7.021702E1,6.002312E1,5.831117E1,1.0961068E0,1.791974E1,2.1585844E1,1.911271E1,2.291628E1,1.1595854E0,5.822492E0,3.6284966E1,3.656746E1,9.8978E1,5.7436363E1,3.0695156E1,3.740763E1,7.7937403E0,2.2742031E1,1.0245891E0,1.9579514E0,1.0656221E1,3.2653957E1,2.647099E1,2.9324012E0,7.8466644E1,4.235591E1,6.875376E1,5.668083E1,6.715877E0,4.1393013E1,2.6646048E1,1.5568682E1,1.2133452E1,2.8031973E1,4.470729E1,7.675886E1,4.3041153E0,4.238402E1,3.385518E1,1.8691608E1,4.6756966E1,2.154488E1,7.649643E0,1.0249265E1,5.826582E1,5.119936E1,1.2938161E1,2.8290442E1,1.08983246E2,1.4029326E2,4.9351605E2,2.431787E2,1.6536668E2,3.6677933E1,8.046121E1,1.2527091E1],"tree_param":{"num_deleted":"0","num_feature":"16","num_nodes":"125","size_leaf_vector":"1"}},{"base_weights":[9.7500095E-3,-2.299852E-1,4.120427E-1,-4.8184776E-1,1.3665889E-1,6.387641E-2,6.1462164E-1,-3.4746867E-1,-7.9048175E-1,-2.6413083E-1,2.724391E-1,-3.3212346E-1,2.1885228E-1,7.1182483E-1,2.9885256E-1,-6.776795E-1,-2.0098895E-1,-1.0264006E0,-6.809206E-1,-1.1780364E-1,-6.414407E-1,5.44551E-1,5.894032E-2,2.425692E-2,-5.525216E-1,3.153817E-1,-4.0617505E-1,5.7619655E-1,9.259925E-1,-5.456244E-1,3.7566712E-1,-7.786717E-1,-4.3873942E-1,-3.9264926E-1,6.2138867E-2,-1.0888108E0,-8.412411E-1,-9.7250324E-1,-5.442643E-1,-3.5527417E-1,9.9197134E-2,-6.4800996E-3,-8.326682E-1,2.715561E-1,7.5512904E-1,-3.497047E-1,1.790544E-1,-2.871065E-1,4.1817263E-1,4.6384907E-1,-5.889643E-1,1.2461795E-1,5.1954484E-1,-7.507794E-1,6.984204E-2,2.9237363E-1,6.907207E-1,7.089129E-1,9.592802E-1,-8.61614E-1,3.6623913E-1,1.4985824E-1,5.8126533E-1,-1.0347634E-1,-6.780709E-2,-7.426938E-2,-3.0539334E-2,-6.0554147E-2,-2.6516033E-2,-1.9668508E-2,1.8554404E-2,-1.12770855E-1,-7.142559E-2,-9.415404E-2,-2.9133586E-2,-1.00771956E-1,-5.046024E-3,-3.3613186E-2,-7.401114E-2,-7.148474E-2,-1.7546078E-2,2.6126986E-2,-4.0219195E-2,2.5553769E-2,-8.284876E-2,-1.1157735E-1,-5.1887393E-2,5.3049643E-3,4.6504103E-2,8.160069E-2,4.6711113E-2,-5.690967E-2,-1.01013575E-2,2.7513117E-2,-1.6077233E-2,-9.122492E-2,-6.3782274E-3,-9.460726E-3,6.728108E-2,7.369891E-2,3.0310622E-3,-1.0349965E-1,-4.7972944E-2,-1.1403262E-2,3.9655544E-2,-1.04789315E-2,5.6732353E-2,-8.399304E-2,6.467176E-2,-3.268811E-2,5.440242E-2,4.88963E-2,-1.1186297E-2,5.734044E-2,7.872237E-2,8.515282E-2,8.868164E-3,9.801053E-2,7.0328705E-2,2.3119895E-2,-1.1481234E-1,-6.3396014E-2,9.8714896E-2,-6.3035223E-3,4.8947986E-2,1.6105212E-2,6.626319E-2],"categories":[],"categories_nodes":[],"categories_segments":[],"categories_sizes":[],"default_left":[0,0,0,0,0,0,0,0,0,0,0,0,0,0,0,0,0,0,0,0,0,0,0,0,0,0,0,0,0,0,0,0,0,0,0,0,0,0,0,0,0,0,0,0,0,0,0,0,0,0,0,0,0,0,0,0,0,0,0,0,0,0,0,0,0,0,0,0,0,0,0,0,0,0,0,0,0,0,0,0,0,0,0,0,0,0,0,0,0,0,0,0,0,0,0,0,0,0,0,0,0,0,0,0,0,0,0,0,0,0,0,0,0,0,0,0,0,0,0,0,0,0,0,0,0,0,0],"id":12,"left_children":[1,3,5,7,9,11,13,15,17,19,21,23,25,27,29,31,33,35,37,39,41,43,45,47,49,51,53,55,57,59,61,63,65,67,69,71,73,75,77,79,81,83,85,87,89,91,93,95,97,99,101,103,105,107,109,111,113,115,117,119,121,123,125,-1,-1,-1,-1,-1,-1,-1,-1,-1,-1,-1,-1,-1,-1,-1,-1,-1,-1,-1,-1,-1,-1,-1,-1,-1,-1,-1,-1,-1,-1,-1,-1,-1,-1,-1,-1,-1,-1,-1,-1,-1,-1,-1,-1,-1,-1,-1,-1,-1,-1,-1,-1,-1,-1,-1,-1,-1,-1,-1,-1,-1,-1,-1,-1],"loss_changes":[3.290374E2,1.974777E2,8.981264E1,5.2292694E1,4.7488033E1,2.8898525E1,2.4502777E1,4.2660812E1,9.218292E0,1.21257E1,3.7806423E1,1.0421705E1,2.0532274E1,1.7329742E1,1.2611279E1,6.2090683E0,3.1006063E1,4.6733093E-1,1.0029083E1,8.304157E0,7.4657707E0,1.6249329E1,1.8031576E1,6.448074E0,3.3074188E0,1.1366556E1,7.545653E0,1.2122955E1,1.0310974E0,5.0277805E0,8.079222E0,4.181038E0,3.1348848E0,9.490215E0,8.333329E0,4.4937897E-1,1.632658E0,2.6535187E0,7.198044E0,4.8425207E0,6.9820323E0,3.496171E0,3.6213531E0,5.310936E0,2.4422379E0,4.498317E0,9.30317E0,4.0476255E0,3.09092E0,3.796882E-1,3.3780823E0,9.977837E0,4.2791862E0,3.8550758E0,3.958514E0,8.8555355E0,2.5989227E0,3.0482922E0,3.9016724E-1,4.1615295E0,3.6753607E0,6.1894403E0,3.0294132E0,0E0,0E0,0E0,0E0,0E0,0E0,0E0,0E0,0E0,0E0,0E0,0E0,0E0,0E0,0E0,0E0,0E0,0E0,0E0,0E0,0E0,0E0,0E0,0E0,0E0,0E0,0E0,0E0,0E0,0E0,0E0,0E0,0E0,0E0,0E0,0E0,0E0,0E0,0E0,0E0,0E0,0E0,0E0,0E0,0E0,0E0,0E0,0E0,0E0,0E0,0E0,0E0,0E0,0E0,0E0,0E0,0E0,0E0,0E0,0E0,0E0,0E0,0E0,0E0],"parents":[2147483647,0,0,1,1,2,2,3,3,4,4,5,5,6,6,7,7,8,8,9,9,10,10,11,11,12,12,13,13,14,14,15,15,16,16,17,17,18,18,19,19,20,20,21,21,22,22,23,23,24,24,25,25,26,26,27,27,28,28,29,29,30,30,31,31,32,32,33,33,34,34,35,35,36,36,37,37,38,38,39,39,40,40,41,41,42,42,43,43,44,44,45,45,46,46,47,47,48,48,49,49,50,50,51,51,52,52,53,53,54,54,55,55,56,56,57,57,58,58,59,59,60,60,61,61,62,62],"right_children":[2,4,6,8,10,12,14,16,18,20,22,24,26,28,30,32,34,36,38,40,42,44,46,48,50,52,54,56,58,60,62,64,66,68,70,72,74,76,78,80,82,84,86,88,90,92,94,96,98,100,102,104,106,108,110,112,114,116,118,120,122,124,126,-1,-1,-1,-1,-1,-1,-1,-1,-1,-1,-1,-1,-1,-1,-1,-1,-1,-1,-1,-1,-1,-1,-1,-1,-1,-1,-1,-1,-1,-1,-1,-1,-1,-1,-1,-1,-1,-1,-1,-1,-1,-1,-1,-1,-1,-1,-1,-1,-1,-1,-1,-1,-1,-1,-1,-1,-1,-1,-1,-1,-1,-1,-1,-1],"split_conditions":[4E0,4E0,3E0,3E1,2E0,5E0,3E1,2E0,2E0,3E1,2.5E1,2.5E1,3.3E1,5E0,2E0,3E0,9E0,1.8E1,5E0,8E0,1.6E1,8E0,4E0,5E0,1E0,5E0,2E0,6E0,5.75E0,8.83E0,5E0,6E0,5E0,2E0,2E0,1.2E1,4.7E1,5.1E1,3.3E1,6.91E0,3E0,3.4E1,7.88E0,2E0,3E0,5E0,3.3E1,1E0,2E0,1.8E1,5.75E0,1E0,3E0,9.86E0,1E1,2.6E1,1E1,3E0,2.9E1,5.81E0,9E0,1E1,3.1E1,-1.0347634E-1,-6.780709E-2,-7.426938E-2,-3.0539334E-2,-6.0554147E-2,-2.6516033E-2,-1.9668508E-2,1.8554404E-2,-1.12770855E-1,-7.142559E-2,-9.415404E-2,-2.9133586E-2,-1.00771956E-1,-5.046024E-3,-3.3613186E-2,-7.401114E-2,-7.148474E-2,-1.7546078E-2,2.6126986E-2,-4.0219195E-2,2.5553769E-2,-8.284876E-2,-1.1157735E-1,-5.1887393E-2,5.3049643E-3,4.6504103E-2,8.160069E-2,4.6711113E-2,-5.690967E-2,-1.01013575E-2,2.7513117E-2,-1.6077233E-2,-9.122492E-2,-6.3782274E-3,-9.460726E-3,6.728108E-2,7.369891E-2,3.0310622E-3,-1.0349965E-1,-4.7972944E-2,-1.1403262E-2,3.9655544E-2,-1.04789315E-2,5.6732353E-2,-8.399304E-2,6.467176E-2,-3.268811E-2,5.440242E-2,4.88963E-2,-1.1186297E-2,5.734044E-2,7.872237E-2,8.515282E-2,8.868164E-3,9.801053E-2,7.0328705E-2,2.3119895E-2,-1.1481234E-1,-6.3396014E-2,9.8714896E-2,-6.3035223E-3,4.8947986E-2,1.6105212E-2,6.626319E-2],"split_indices":[4,14,14,1,4,13,1,4,4,1,1,1,1,14,13,14,13,11,13,13,2,13,13,4,11,4,14,13,6,6,4,11,13,14,14,13,2,2,1,6,9,1,6,9,9,14,1,9,13,2,6,15,2,6,13,1,13,9,1,6,2,13,1,0,0,0,0,0,0,0,0,0,0,0,0,0,0,0,0,0,0,0,0,0,0,0,0,0,0,0,0,0,0,0,0,0,0,0,0,0,0,0,0,0,0,0,0,0,0,0,0,0,0,0,0,0,0,0,0,0,0,0,0,0,0,0,0],"split_type":[0,0,0,0,0,0,0,0,0,0,0,0,0,0,0,0,0,0,0,0,0,0,0,0,0,0,0,0,0,0,0,0,0,0,0,0,0,0,0,0,0,0,0,0,0,0,0,0,0,0,0,0,0,0,0,0,0,0,0,0,0,0,0,0,0,0,0,0,0,0,0,0,0,0,0,0,0,0,0,0,0,0,0,0,0,0,0,0,0,0,0,0,0,0,0,0,0,0,0,0,0,0,0,0,0,0,0,0,0,0,0,0,0,0,0,0,0,0,0,0,0,0,0,0,0,0,0],"sum_hessian":[3.409721E3,2.136789E3,1.272932E3,1.2664792E3,8.7030975E2,4.6870248E2,8.042295E2,8.8379926E2,3.8268E2,2.1999458E2,6.503152E2,1.3151292E2,3.3718958E2,6.139752E2,1.9025427E2,2.7046365E2,6.1333563E2,1.1870452E2,2.639755E2,1.5946397E2,6.053062E1,2.8522937E2,3.6508582E2,5.0593678E1,8.091924E1,2.9250967E2,4.4679886E1,3.7817474E2,2.358005E2,1.5353974E1,1.749003E2,1.8852248E2,8.194118E1,3.545742E2,2.587614E2,8.512999E1,3.357454E1,8.228597E1,1.8168951E2,7.583654E1,8.3627426E1,1.4249571E1,4.628105E1,1.2520379E2,1.6002557E2,8.249948E1,2.8258633E2,2.8409252E1,2.2184425E1,2.3950174E0,7.852422E1,1.5204958E2,1.404601E2,2.5582596E1,1.909729E1,1.0974606E2,2.6842868E2,3.4315426E1,2.0148508E2,1.1443534E1,3.9104402E0,8.417721E1,9.072309E1,5.0551525E1,1.3797095E2,2.3592907E1,5.834827E1,1.3140045E2,2.2317374E2,8.33511E1,1.7541031E2,7.529932E1,9.830672E0,2.7793072E1,5.7814655E0,7.916929E1,3.1166873E0,8.939893E1,9.229057E1,2.4289427E1,5.1547115E1,6.356055E1,2.0066877E1,1.1327894E1,2.9216764E0,2.2986696E1,2.3294355E1,5.9398277E1,6.580551E1,1.3058984E2,2.9435732E1,4.3147217E1,3.9352264E1,2.2045036E2,6.2135963E1,6.665611E0,2.174364E1,7.569579E0,1.4614845E1,1.0399092E0,1.355108E0,1.3780432E1,6.474379E1,8.129035E1,7.0759224E1,9.900111E0,1.3055998E2,2.4423513E1,1.1590818E0,1.0567043E1,8.530246E0,7.369629E1,3.604977E1,1.2428292E2,1.4414575E2,2.7596905E1,6.7185197E0,1.837114E2,1.7773674E1,2.4171224E0,9.026412E0,1.4897087E0,2.4207315E0,5.224289E1,3.1934315E1,1.520046E1,7.552263E1],"tree_param":{"num_deleted":"0","num_feature":"16","num_nodes":"127","size_leaf_vector":"1"}},{"base_weights":[-3.735407E-3,-4.16104E-1,2.1259345E-1,-7.1483356E-1,-2.0528257E-1,-2.0218052E-2,5.1145804E-1,-8.9682865E-1,-5.5767304E-1,-5.1271353E-2,-4.973852E-1,-1.931913E-1,2.924547E-1,1.8107623E-1,6.341478E-1,-1.07407786E-1,-8.114366E-1,-8.616648E-1,-4.215157E-1,-2.095219E-1,2.1956585E-1,-9.1122067E-1,-3.6427093E-1,1.0313701E-1,-3.7533316E-1,-6.9544606E-2,4.686312E-1,4.9021682E-1,-6.913479E-2,6.9471127E-1,1.4843264E-1,-1.0906544E0,-7.2242755E-1,-2.5221637E-1,-9.202541E-1,-1.73891E-1,-6.490844E-1,-3.4489715E-1,1.06715925E-1,-4.15455E-1,3.4959608E-1,-1.0608293E0,-5.6394714E-1,-2.1627761E-1,-5.863767E-1,-3.4832492E-1,1.8376058E-1,-5.1473606E-1,4.310565E-2,6.4410135E-2,-7.6839817E-1,5.818903E-1,1.3582844E-1,1.3534483E-1,6.398138E-1,-2.0775542E-1,2.6743355E-1,3.6187956E-1,7.784488E-1,-1.6824904E-1,5.143243E-1,-7.703426E-2,-1.21043794E-1,-1.1670824E-2,-7.640373E-2,7.426407E-2,-6.503057E-2,-1.8796586E-2,-9.631523E-2,-3.7220567E-2,3.7280328E-3,-8.955378E-2,-3.291278E-2,-5.217973E-2,-1.22661935E-2,-3.0704174E-2,2.6759267E-2,-7.18893E-2,1.0011737E-2,1.21994786E-1,2.965869E-2,-4.112669E-2,-1.11080185E-1,-2.6487965E-2,-1.07545555E-1,-7.0056744E-2,-1.0481122E-2,-7.304423E-2,-2.3016488E-2,-9.527791E-2,-4.5382525E-3,6.1932433E-4,4.7121186E-2,-8.0990784E-2,-3.7472744E-2,-2.2374757E-2,1.761182E-2,2.7921854E-2,-1.4305192E-2,-9.130931E-2,3.538058E-2,4.2829532E-2,8.226104E-2,-2.3647679E-2,4.1488264E-2,-2.5256995E-2,4.6022795E-2,8.3377935E-2,3.198684E-2,-3.9117604E-2,3.2963182E-3,3.1111415E-3,5.7584345E-2,2.0372571E-2,7.452806E-2,6.418963E-2,8.8618584E-2,-2.4905715E-2,5.3547718E-2,1.05949916E-1,3.0738667E-2],"categories":[],"categories_nodes":[],"categories_segments":[],"categories_sizes":[],"default_left":[0,0,0,0,0,0,0,0,0,0,0,0,0,0,0,0,0,0,0,0,0,0,0,0,0,0,0,0,0,0,0,0,0,0,0,0,0,0,0,0,0,0,0,0,0,0,0,0,0,0,0,0,0,0,0,0,0,0,0,0,0,0,0,0,0,0,0,0,0,0,0,0,0,0,0,0,0,0,0,0,0,0,0,0,0,0,0,0,0,0,0,0,0,0,0,0,0,0,0,0,0,0,0,0,0,0,0,0,0,0,0,0,0,0,0,0,0,0,0,0,0],"id":13,"left_children":[1,3,5,7,9,11,13,15,17,19,21,23,25,27,29,-1,31,33,35,37,39,41,43,45,47,49,51,53,55,57,59,61,63,65,67,69,71,73,75,77,79,81,83,85,87,89,91,93,95,97,99,101,103,105,107,109,111,113,115,117,119,-1,-1,-1,-1,-1,-1,-1,-1,-1,-1,-1,-1,-1,-1,-1,-1,-1,-1,-1,-1,-1,-1,-1,-1,-1,-1,-1,-1,-1,-1,-1,-1,-1,-1,-1,-1,-1,-1,-1,-1,-1,-1,-1,-1,-1,-1,-1,-1,-1,-1,-1,-1,-1,-1,-1,-1,-1,-1,-1,-1],"loss_changes":[2.9981573E2,7.268471E1,1.533941E2,1.3173691E1,3.053793E1,6.712735E1,3.901422E1,2.4565735E0,1.0364441E1,1.9159702E1,1.2582054E1,4.316533E1,2.8227493E1,2.0362053E1,2.0592102E1,0E0,3.0017395E0,2.5965462E0,1.0084633E1,1.210925E1,1.3766275E1,2.3313866E0,5.758234E0,1.116391E1,2.890062E1,1.3679255E1,1.1134621E1,6.1609344E0,6.8729897E0,1.714444E1,9.27141E0,4.0647888E-1,2.8996658E0,3.7800941E0,2.0773888E0,3.7003486E0,7.1123543E0,7.7082996E0,5.7597027E0,4.529691E0,5.9803867E0,7.8557205E-1,2.6389656E0,5.8122554E0,3.4759026E0,8.4813595E0,1.323746E1,1.5046585E1,4.4634852E0,5.525774E0,4.1382284E0,7.8431244E0,8.081528E0,4.674181E0,4.854141E0,4.607406E0,3.1207523E0,7.5826626E0,6.7678833E0,2.5925634E0,3.8511639E0,0E0,0E0,0E0,0E0,0E0,0E0,0E0,0E0,0E0,0E0,0E0,0E0,0E0,0E0,0E0,0E0,0E0,0E0,0E0,0E0,0E0,0E0,0E0,0E0,0E0,0E0,0E0,0E0,0E0,0E0,0E0,0E0,0E0,0E0,0E0,0E0,0E0,0E0,0E0,0E0,0E0,0E0,0E0,0E0,0E0,0E0,0E0,0E0,0E0,0E0,0E0,0E0,